/* Generated by Edge Impulse
*
* Permission is hereby granted, free of charge, to any person obtaining a copy
* of this software and associated documentation files (the "Software"), to deal
* in the Software without restriction, including without limitation the rights
* to use, copy, modify, merge, publish, distribute, sublicense, and/or sell
* copies of the Software, and to permit persons to whom the Software is
* furnished to do so, subject to the following conditions:
*
* The above copyright notice and this permission notice shall be included in
* all copies or substantial portions of the Software.
*
* THE SOFTWARE IS PROVIDED "AS IS", WITHOUT WARRANTY OF ANY KIND, EXPRESS OR
* IMPLIED, INCLUDING BUT NOT LIMITED TO THE WARRANTIES OF MERCHANTABILITY,
* FITNESS FOR A PARTICULAR PURPOSE AND NONINFRINGEMENT. IN NO EVENT SHALL THE
* AUTHORS OR COPYRIGHT HOLDERS BE LIABLE FOR ANY CLAIM, DAMAGES OR OTHER
* LIABILITY, WHETHER IN AN ACTION OF CONTRACT, TORT OR OTHERWISE, ARISING FROM,
* OUT OF OR IN CONNECTION WITH THE SOFTWARE OR THE USE OR OTHER DEALINGS IN THE
* SOFTWARE.
*/
// Generated on: 16.06.2021 12:05:26

#include <stdio.h>
#include <stdlib.h>
#include <vector>
#include "edge-impulse-sdk/tensorflow/lite/c/builtin_op_data.h"
#include "edge-impulse-sdk/tensorflow/lite/c/common.h"
#include "edge-impulse-sdk/tensorflow/lite/micro/kernels/micro_ops.h"

#if EI_CLASSIFIER_PRINT_STATE
#if defined(__cplusplus) && EI_C_LINKAGE == 1
extern "C" {
    extern void ei_printf(const char *format, ...);
}
#else
extern void ei_printf(const char *format, ...);
#endif
#endif

#if defined __GNUC__
#define ALIGN(X) __attribute__((aligned(X)))
#elif defined _MSC_VER
#define ALIGN(X) __declspec(align(X))
#elif defined __TASKING__
#define ALIGN(X) __align(X)
#endif

namespace {

constexpr int kTensorArenaSize = 496;

#if defined(EI_CLASSIFIER_ALLOCATION_STATIC)
uint8_t tensor_arena[kTensorArenaSize] ALIGN(16);
#elif defined(EI_CLASSIFIER_ALLOCATION_STATIC_HIMAX)
#pragma Bss(".tensor_arena")
uint8_t tensor_arena[kTensorArenaSize] ALIGN(16);
#pragma Bss()
#elif defined(EI_CLASSIFIER_ALLOCATION_STATIC_HIMAX_GNU)
uint8_t tensor_arena[kTensorArenaSize] ALIGN(16) __attribute__((section(".tensor_arena")));
#else
#define EI_CLASSIFIER_ALLOCATION_HEAP 1
uint8_t* tensor_arena = NULL;
#endif

static uint8_t* tensor_boundary;
static uint8_t* current_location;

template <int SZ, class T> struct TfArray {
  int sz; T elem[SZ];
};
enum used_operators_e {
  OP_FULLY_CONNECTED, OP_SOFTMAX,  OP_LAST
};
struct TensorInfo_t { // subset of TfLiteTensor used for initialization from constant memory
  TfLiteAllocationType allocation_type;
  void* data;
  TfLiteIntArray* dims;
  size_t bytes;
};
struct NodeInfo_t { // subset of TfLiteNode used for initialization from constant memory
  struct TfLiteIntArray* inputs;
  struct TfLiteIntArray* outputs;
  void* builtin_data;
  used_operators_e used_op_index;
};

TfLiteContext ctx{};
TfLiteTensor tflTensors[17];
TfLiteRegistration registrations[OP_LAST];
TfLiteNode tflNodes[6];

const TfArray<2, int> tensor_dimension0 = { 2, { 1,33 } };
const ALIGN(8) float tensor_data1[64] = { -0.069370590150356293, -0.042466890066862106, 0.62579250335693359, 0.0019527114927768707, -0.23668788373470306, 0.47410738468170166, 0.018582446500658989, -0.26439598202705383, -0.15745128691196442, -0.38842517137527466, 0.22524309158325195, 0.21179048717021942, 0.16358044743537903, -0.062113434076309204, 0.22137451171875, -0.18466928601264954, 0.21680095791816711, 0.065299496054649353, 0.20230157673358917, 0.39251568913459778, 0.10306638479232788, 0.40696823596954346, -0.13452689349651337, -0.21347081661224365, -0.13846227526664734, -0.084646977484226227, 0.25100791454315186, 0.51382076740264893, 0.21640399098396301, -0.018274551257491112, 0.1992240846157074, 0.36407804489135742, 0.10448366403579712, -0.040038086473941803, -0.05043405294418335, 0.1124669685959816, -0.0089904898777604103, 0.14400126039981842, -0.19576659798622131, -0.26005342602729797, 0.075072281062602997, 0.26168918609619141, 0.083781450986862183, 0.18700419366359711, -0.058130752295255661, 0.033307939767837524, -0.11537911742925644, -0.11076346039772034, 0.11715413630008698, -0.4754231870174408, -0.083909384906291962, 0.029636286199092865, 0.17840921878814697, 0.12349855154752731, -0.037713654339313507, -0.0086962021887302399, 0.31387224793434143, -0.39563310146331787, 0.19858467578887939, -0.079220876097679138, -0.046734049916267395, -0.14477968215942383, -0.17636249959468842, 0.26857790350914001, };
const TfArray<1, int> tensor_dimension1 = { 1, { 64 } };
const ALIGN(8) float tensor_data2[32] = { -0.21085453033447266, -0.10371696949005127, 0.024642050266265869, -0.010180163197219372, -0.075411297380924225, 0.090540416538715363, 0.078984819352626801, 0.10205283015966415, -0.13513563573360443, 0.059747807681560516, 0.10322491079568863, 0.066233366727828979, 0.21216203272342682, 0.025261994451284409, -0.040376406162977219, -0.11916253715753555, -0.039470288902521133, 0.020228857174515724, 0.039025265723466873, -0.25927609205245972, -0.096297599375247955, 0.18763113021850586, 0.61196357011795044, 0.58240205049514771, -0.036104056984186172, 0.033834986388683319, -0.057731155306100845, -0.20236952602863312, 0.23907123506069183, -0.030641356483101845, 0.34712502360343933, 0.075483798980712891, };
const TfArray<1, int> tensor_dimension2 = { 1, { 32 } };
const ALIGN(8) float tensor_data3[16] = { -0.13585196435451508, -0.22429904341697693, -0.10607026517391205, -0.078751064836978912, -0.081520795822143555, 0.013121924363076687, 0.019911101087927818, 0.26498103141784668, 0.35058972239494324, 0.0082408618181943893, 0.10651716589927673, -0.049651909619569778, 0.45927643775939941, 0.23059546947479248, -0.19857656955718994, -0.0071439584717154503, };
const TfArray<1, int> tensor_dimension3 = { 1, { 16 } };
const ALIGN(8) float tensor_data4[8] = { 0.14715029299259186, 0, 0.40661874413490295, 0.29312822222709656, -0.03164595365524292, 0.086868055164813995, 1.0445181131362915, 0.27500176429748535, };
const TfArray<1, int> tensor_dimension4 = { 1, { 8 } };
const ALIGN(8) float tensor_data5[4] = { 5.2855129241943359, -0.6352115273475647, -0.66380161046981812, -1.6585958003997803, };
const TfArray<1, int> tensor_dimension5 = { 1, { 4 } };
const ALIGN(8) float tensor_data6[64*33] = { 
  -0.193410724401474, 0.33626669645309448, -0.19786390662193298, 0.52324789762496948, -0.18204370141029358, 0.44849920272827148, 0.080908246338367462, -0.070942580699920654, -0.018500477075576782, 0.34038671851158142, 0.048401057720184326, -0.093090705573558807, -0.33556094765663147, 0.00020632681844290346, 0.088013693690299988, -0.30326995253562927, -0.10297455638647079, -0.25407662987709045, -0.093478545546531677, -0.20549431443214417, -0.25146469473838806, -0.12759251892566681, 0.07232329249382019, -0.18732395768165588, 0.15627975761890411, 0.15487959980964661, -0.22913625836372375, 0.059556514024734497, -0.16869549453258514, 0.17815129458904266, 0.051913946866989136, -0.023283800110220909, 0.17422196269035339, 
  0.043972548097372055, 0.1068771630525589, 0.072780288755893707, 0.068710267543792725, 0.073060579597949982, -0.21276739239692688, 0.16341157257556915, -0.055530764162540436, 0.18864656984806061, 0.068137817084789276, -0.28948312997817993, 0.13255295157432556, 0.047088213264942169, -0.14530013501644135, 0.04879465326666832, -0.16564850509166718, -0.0059486967511475086, -0.1117461621761322, 0.20555147528648376, 0.097705952823162079, -0.32503613829612732, -0.0016447140369564295, -0.021861525252461433, 0.20906132459640503, -0.18776705861091614, 0.17770861089229584, -0.13835769891738892, -0.040846027433872223, 0.073569230735301971, -0.30871394276618958, 0.035786110907793045, 0.21270950138568878, 0.065518423914909363, 
  0.010554500855505466, -0.10955894738435745, 0.11463945358991623, 0.11516203731298447, 0.054011780768632889, 0.014063275419175625, -0.12149091064929962, 0.10869776457548141, -0.020273536443710327, -0.084998384118080139, -0.54795140027999878, -0.16189594566822052, -0.083877019584178925, -0.38812059164047241, 0.40021055936813354, 0.22246178984642029, 0.036722380667924881, 0.10114918649196625, -0.13947990536689758, -0.033266328275203705, -0.061461929231882095, -0.31115412712097168, -0.10604283958673477, -0.063908256590366364, -0.12903015315532684, 0.15739032626152039, 0.068740993738174438, 0.25929737091064453, -0.10886542499065399, -0.00025784579338505864, 0.12836593389511108, 0.1723172515630722, -0.31850588321685791, 
  -0.19147726893424988, -0.24496127665042877, 0.2500881552696228, 0.44946706295013428, 0.14058287441730499, -0.38544186949729919, -0.21190045773983002, -0.025558061897754669, -0.12230585515499115, -0.21155506372451782, -0.036963008344173431, 0.15459056198596954, -0.29876652359962463, -0.17944765090942383, -0.10790896415710449, 0.37405714392662048, -0.056735984981060028, 0.13592346012592316, -0.10108339786529541, 0.017547141760587692, 0.063010118901729584, -0.48546579480171204, -0.21371999382972717, -0.18884672224521637, 0.12134907394647598, -0.0048581259325146675, 0.045359093695878983, 0.090200290083885193, 0.14941492676734924, 0.051105372607707977, -0.16962176561355591, 0.00017311498231720179, -0.030484424903988838, 
  -0.0083247954025864601, -0.26430410146713257, 0.035403728485107422, -0.065346188843250275, 0.33363068103790283, -0.35557010769844055, -0.16814914345741272, 0.16077920794487, 0.085585899651050568, 0.014302337542176247, -0.34982290863990784, -0.021153140813112259, -0.28500327467918396, 0.27405232191085815, -0.1542668342590332, 0.26032006740570068, -0.010744565166532993, 0.067830778658390045, -0.01016079168766737, -0.20945610105991364, 0.0077081555500626564, -0.067095376551151276, -0.25383254885673523, -0.034964792430400848, 0.063777677714824677, 0.12147156894207001, -0.11730417609214783, -0.076468303799629211, -0.24068848788738251, 0.10648152232170105, -0.013279730454087257, -0.18167564272880554, -0.026258109137415886, 
  0.11264616996049881, 0.09347950667142868, 0.13454356789588928, 0.20595166087150574, -0.26547044515609741, -0.038571901619434357, 0.035543691366910934, 0.044116392731666565, -0.067126020789146423, 0.033887635916471481, -0.036691643297672272, 0.24736838042736053, -0.030199285596609116, 0.058386970311403275, -0.23477603495121002, -0.15949928760528564, 0.071859173476696014, 0.067499242722988129, -0.091707050800323486, 0.03952910378575325, 0.028808079659938812, -0.38544747233390808, 0.21321703493595123, -0.20156531035900116, -0.14585188031196594, -0.31317433714866638, 0.18832783401012421, 0.044494982808828354, -0.042457614094018936, -0.30222883820533752, 0.12305464595556259, -0.58221596479415894, -0.029311312362551689, 
  -0.19814451038837433, -0.10714513063430786, 0.3851492702960968, -0.0098544768989086151, -0.26544901728630066, -0.050041470676660538, -0.27982258796691895, -0.45171603560447693, -0.14891552925109863, -0.024714259430766106, -0.02735530212521553, -0.025632983073592186, -0.46097502112388611, -0.23103183507919312, -0.19322369992733002, 0.10943365097045898, -0.086516052484512329, 0.076985381543636322, 0.12543344497680664, -0.38068875670433044, -0.22911056876182556, -0.50106406211853027, 0.21213319897651672, 0.011076967231929302, 0.090167500078678131, 0.2900739312171936, -0.28280198574066162, 0.095306694507598877, 0.16377025842666626, -0.10939791053533554, 0.12888622283935547, 0.16397590935230255, -0.47675943374633789, 
  -0.2519906759262085, -0.20959283411502838, -0.34389162063598633, -0.20733562111854553, 0.13597503304481506, -0.032243188470602036, 0.19046889245510101, 0.035315103828907013, 0.17478923499584198, 0.11733627319335938, -0.11235342174768448, -0.15643677115440369, -0.11818159371614456, -0.074732176959514618, -0.13512000441551208, 0.041675042361021042, -0.027783261612057686, -0.038337122648954391, -0.26378321647644043, -0.11237665265798569, -0.0066417432390153408, -0.002872395096346736, 0.11526738852262497, -0.22625608742237091, 0.047554336488246918, 0.069511398673057556, -0.055943738669157028, -0.22690925002098083, 0.068929113447666168, 0.19965481758117676, -0.21528379619121552, -0.27064040303230286, 0.1634366363286972, 
  -0.026790084317326546, -0.30107244849205017, -0.12506897747516632, 0.080792292952537537, -0.15663871169090271, -0.079529277980327606, -0.27623552083969116, -0.18913306295871735, -0.32570341229438782, -0.15634122490882874, -0.24466171860694885, -0.22560209035873413, -0.27319011092185974, 0.066055133938789368, -0.11757214367389679, -0.23215705156326294, -0.17006769776344299, -0.11965888738632202, -0.066673204302787781, 0.054546501487493515, 0.14320178329944611, 0.068982928991317749, -0.15581674873828888, -0.11024653911590576, 0.013355378992855549, -0.20531104505062103, -0.13947229087352753, -0.034447800368070602, 0.11757630109786987, -0.20514103770256042, -0.23078270256519318, -0.22973494231700897, -0.34283554553985596, 
  -0.10223887115716934, 0.10754959285259247, -0.011612750589847565, -0.13105368614196777, -0.1061917170882225, -0.06480957567691803, 0.16505308449268341, 0.095590725541114807, 0.029049092903733253, 0.015229650773108006, 0.079665631055831909, -0.034499805420637131, -0.13618102669715881, 0.038823191076517105, 0.16211161017417908, -0.21046356856822968, -0.21105845272541046, 0.17031887173652649, -0.068477466702461243, -0.018486658111214638, 0.038945987820625305, -0.16682352125644684, 0.12746372818946838, -0.013911275193095207, 0.20788893103599548, -0.030327985063195229, -0.16381189227104187, 0.14697977900505066, 0.28293561935424805, 0.054432101547718048, 0.010716353543102741, 0.10165712237358093, -0.01866794191300869, 
  -0.10288349539041519, 0.34851312637329102, 0.015407193452119827, 0.17145182192325592, -0.15445467829704285, 0.11251862347126007, -0.03192683681845665, -0.21037216484546661, 0.000340066704666242, -0.09376196563243866, -0.82053011655807495, -0.20109160244464874, 0.33680862188339233, -0.08194461464881897, -0.19577047228813171, -0.24266698956489563, -0.041476365178823471, -0.017496580258011818, -0.11987869441509247, -0.14870154857635498, -0.30942040681838989, 0.17959079146385193, 0.11148502677679062, 0.019968932494521141, 0.1792018711566925, 0.34836867451667786, -0.0041755223646759987, 0.056304331868886948, -0.24882744252681732, 0.16335494816303253, 0.17383824288845062, -0.22219109535217285, -0.47736719250679016, 
  0.25725844502449036, 0.26721975207328796, 0.19091418385505676, 0.27226591110229492, -0.24096743762493134, 0.20351199805736542, 0.17081192135810852, 0.18463005125522614, -0.04505113884806633, -0.043924462050199509, -0.4342007040977478, -0.09338630735874176, 0.32900786399841309, -0.058754038065671921, 0.17524103820323944, -0.066253773868083954, 0.0099382651969790459, -0.19771051406860352, 0.15267498791217804, 0.12677539885044098, -0.070638619363307953, -0.30554044246673584, 0.11984095722436905, 0.10059812664985657, 0.018582412973046303, -0.098613299429416656, -0.12761501967906952, 0.083012029528617859, 0.080139033496379852, -0.14190936088562012, -0.070783630013465881, -0.09065883606672287, -0.099349431693553925, 
  0.15069153904914856, 0.28779563307762146, -0.11819672584533691, 0.24976439774036407, -0.12434715032577515, 0.086198747158050537, -0.19057019054889679, -0.12327117472887039, 0.19702374935150146, 0.026592059060931206, -0.21019299328327179, -0.015122759155929089, -0.024630552157759666, -0.1580049991607666, 0.048164360225200653, 0.093524739146232605, 0.14904099702835083, 0.040419481694698334, 0.21636968851089478, 0.19488871097564697, -0.11148779839277267, -0.089025743305683136, -0.036871910095214844, -0.11196168512105942, 0.29143455624580383, 0.11793296784162521, -0.13619071245193481, 0.24004511535167694, -0.056330151855945587, 0.019062111154198647, -0.21283629536628723, 0.00033463630825281143, -0.41917860507965088, 
  0.049762226641178131, 0.15825425088405609, 0.13141749799251556, -0.014094927348196507, 0.080523304641246796, -0.042043901979923248, 0.31885606050491333, -0.060333568602800369, -0.020810794085264206, 0.25069716572761536, 0.43680772185325623, -0.18687015771865845, 0.13057571649551392, 0.31563138961791992, -0.1554199755191803, -0.078261673450469971, 0.42463591694831848, 0.054545305669307709, 0.19244840741157532, -0.022005975246429443, -0.24285522103309631, -0.24365296959877014, 0.063529282808303833, -0.015621460974216461, 0.12509018182754517, 0.23323805630207062, -0.30028712749481201, 0.20893973112106323, 0.27977591753005981, -0.18877555429935455, 0.12578321993350983, 0.16877706348896027, 0.20509155094623566, 
  -0.11626667529344559, -0.011691361665725708, -0.098294541239738464, -0.19792179763317108, 0.25621256232261658, -0.063121214509010315, -0.17196653783321381, -0.017009539529681206, -0.24017491936683655, -0.28328210115432739, -0.21163287758827209, 0.21398422122001648, 0.063628055155277252, -0.14268343150615692, 0.13885295391082764, 0.30227616429328918, 0.087286584079265594, 0.38682174682617188, 0.12017852067947388, 0.079411424696445465, -0.33038923144340515, 0.077885016798973083, 0.13332389295101166, -0.20937678217887878, -0.28148278594017029, 0.24804681539535522, -0.24737831950187683, 0.1537497341632843, -0.018693417310714722, -0.15788222849369049, -0.22049914300441742, 0.06666940450668335, -0.37366017699241638, 
  -0.18064537644386292, 0.0014611877268180251, -0.032707337290048599, 0.036462176591157913, -0.15561459958553314, -0.33369392156600952, 0.0086028361693024635, 0.018622137606143951, 0.14537401497364044, 0.23591405153274536, -0.13994082808494568, -0.13824072480201721, -0.29598560929298401, 0.011379638686776161, 0.055177681148052216, -0.27979770302772522, -0.23599450290203094, -0.24175520241260529, -0.084987238049507141, -0.1259390264749527, -0.34647136926651001, -0.038225211203098297, -0.31640103459358215, -0.37541797757148743, -0.16603641211986542, -0.00045655586291104555, -0.082511357963085175, -0.41617697477340698, -0.23499050736427307, -0.39932677149772644, -0.43885403871536255, -0.23131032288074493, 0.15988308191299438, 
  0.014711133204400539, 0.17574100196361542, -0.07946091890335083, 0.085582464933395386, 0.44532337784767151, 0.23695933818817139, 0.52924925088882446, 0.055419694632291794, -0.34341666102409363, -0.065528571605682373, 0.4191303551197052, -0.12136480957269669, -0.40112540125846863, -0.25362038612365723, -0.43838131427764893, -0.08605540543794632, -0.45792335271835327, -0.43274357914924622, 0.17659023404121399, -0.095273345708847046, -0.081253997981548309, -0.31954741477966309, 0.053470049053430557, 0.22070080041885376, 0.025504171848297119, 0.16797910630702972, 0.27804294228553772, -0.068300515413284302, 0.1023700088262558, 0.0044765016064047813, 0.14364567399024963, -0.088959746062755585, 0.55410498380661011, 
  -0.17387153208255768, -0.50068032741546631, 0.02897731214761734, -0.16428807377815247, -0.19968101382255554, -0.16702179610729218, -0.10775803774595261, 0.069583363831043243, -0.12155529111623764, -0.1541108638048172, 0.018352610990405083, -0.084584146738052368, 0.22788359224796295, 0.059535540640354156, 0.11476728320121765, 0.21327793598175049, -0.18747918307781219, 0.17549143731594086, 0.079746127128601074, -0.040843896567821503, 0.039831973612308502, 0.017527109012007713, -0.19058562815189362, 0.18124480545520782, -0.1061856672167778, 0.06800416111946106, -0.17805847525596619, 0.39886683225631714, -0.2676292359828949, -0.034624535590410233, 0.20070114731788635, -0.04376569390296936, -0.043945282697677612, 
  -0.11629211902618408, -0.079075686633586884, 0.028418354690074921, -0.088852293789386749, -0.18947252631187439, -0.076854489743709564, 0.31082051992416382, -0.038217402994632721, -0.39720439910888672, -0.27065643668174744, 0.033917762339115143, 0.030397089198231697, 0.10242594033479691, 0.13681139051914215, 0.33216041326522827, 0.047189254313707352, 0.11677686870098114, 0.10657580941915512, -0.22315290570259094, 0.16402766108512878, -0.047727927565574646, 0.024541357532143593, 0.15593846142292023, 0.21200691163539886, 0.003741441760212183, -0.083734914660453796, 0.14107172191143036, -0.063718758523464203, 0.11823388189077377, -0.15648902952671051, 0.16245740652084351, -0.44445106387138367, -0.057759322226047516, 
  -0.12054954469203949, 0.20368276536464691, -0.3207668662071228, -0.18211787939071655, -0.030715100467205048, -0.28584951162338257, -0.42054107785224915, 0.012834451161324978, -0.025148423388600349, -0.11434066295623779, 0.25960147380828857, 0.041000407189130783, 0.44346460700035095, -0.3834725022315979, 0.25564190745353699, -0.071548379957675934, -0.0019921185448765755, 0.15177257359027863, -0.21695159375667572, -0.019022807478904724, -0.70001107454299927, -0.23198576271533966, 0.32430544495582581, -0.023831428959965706, -0.012449625879526138, 0.15344659984111786, 0.26172316074371338, 0.026012657210230827, -0.17017172276973724, -0.24150419235229492, 0.1094791442155838, -0.07053384929895401, 0.22684769332408905, 
  -0.19779583811759949, 0.1035240963101387, -0.061658840626478195, -0.096941515803337097, -0.1148340031504631, 0.020748380571603775, 0.17046153545379639, -0.020048569887876511, -0.28279581665992737, 0.078036725521087646, 0.25489065051078796, 0.17890405654907227, -0.35870993137359619, -0.011730924248695374, 0.16952916979789734, 0.28692364692687988, 0.025079049170017242, -0.020028809085488319, -0.051872424781322479, -0.17227146029472351, 0.11250925809144974, -0.56349265575408936, -0.22726723551750183, -0.13264967501163483, 0.0023760516196489334, 0.26666373014450073, 0.087886393070220947, 0.0054530007764697075, 0.19982419908046722, 0.19013981521129608, 0.016530606895685196, -0.25221014022827148, -0.14032502472400665, 
  0.011204181239008904, 0.1762617826461792, -0.16430824995040894, 0.3563784658908844, -0.25858330726623535, -0.10416004061698914, -0.044827844947576523, 0.14126892387866974, 0.032092444598674774, 0.16108377277851105, -0.26781794428825378, -0.032974079251289368, 0.29742765426635742, 0.24918986856937408, 0.29801979660987854, -0.19380828738212585, 0.057967577129602432, -0.12119017541408539, -0.083638347685337067, -0.12126558274030685, -0.063777260482311249, -0.066868335008621216, -0.076900951564311981, 0.23131702840328217, 0.022344138473272324, 0.11780635267496109, 0.35280117392539978, -0.053692683577537537, -0.061967622488737106, 0.078407824039459229, 0.12842552363872528, -0.26710665225982666, -0.2893490195274353, 
  -0.43362373113632202, -0.2716902494430542, -0.27853214740753174, 0.014342327602207661, -0.31945919990539551, -0.13979010283946991, 0.1819319874048233, -0.22135163843631744, -0.97316241264343262, -0.57507187128067017, -0.1940767765045166, 0.17412485182285309, -0.043121267110109329, 0.21506907045841217, 0.35027104616165161, 0.045406490564346313, 0.2295733243227005, -0.3091723620891571, -0.081236757338047028, -0.020441506057977676, -0.30438709259033203, -0.44400879740715027, 0.03466125950217247, 0.24906623363494873, -0.044297385960817337, -0.014078862965106964, 0.16811522841453552, 0.055322103202342987, 0.28579246997833252, -0.081649616360664368, -0.0065796133130788803, 0.017078667879104614, 0.61802870035171509, 
  -0.14381872117519379, -0.42055416107177734, 0.066048353910446167, -0.39932018518447876, -0.036213871091604233, -0.26699048280715942, -0.1936786025762558, 0.08115820586681366, 0.15989232063293457, -0.15210555493831635, -0.22908295691013336, -0.43739056587219238, -0.40386250615119934, 0.043788310140371323, -0.39521938562393188, -0.071854226291179657, -0.37025633454322815, -0.22070702910423279, 0.01917286217212677, -0.25534778833389282, -0.24676381051540375, -0.046282291412353516, -0.30716818571090698, 0.039384946227073669, -0.18700686097145081, -0.48766434192657471, -0.27076584100723267, 0.11157991737127304, -0.33257734775543213, -0.38912874460220337, -0.32085949182510376, -0.46620652079582214, -0.072766266763210297, 
  0.13909576833248138, 0.0060225799679756165, -0.024655582383275032, -0.086479045450687408, 0.08099006861448288, 0.028387472033500671, -0.24193255603313446, -0.012571223080158234, -0.085614301264286041, -0.18642821907997131, 0.25974562764167786, -0.18420296907424927, 0.13630037009716034, -0.20614106953144073, 0.059115201234817505, 0.047958634793758392, -0.12139130383729935, 0.21569108963012695, 0.015477101318538189, -0.19029372930526733, -0.07596762478351593, -0.36988997459411621, -0.17059984803199768, 0.34554257988929749, 0.074826806783676147, 0.51264744997024536, -0.041491948068141937, 0.13514883816242218, -0.15239809453487396, 0.014692210592329502, 0.18495829403400421, 0.19350862503051758, -0.42936187982559204, 
  -0.22245760262012482, -0.30401015281677246, -0.13347294926643372, -0.054508723318576813, -0.21953724324703217, 0.0019358644494786859, 0.079199478030204773, -0.14802336692810059, -0.23281261324882507, 0.10836925357580185, 0.14477592706680298, -0.11564923822879791, -0.31079772114753723, -0.27471229434013367, -0.016506798565387726, -0.11350574344396591, -0.23997488617897034, 0.056669499725103378, 0.010990869253873825, -0.21202583611011505, -0.092243023216724396, 0.085407771170139313, -0.28383132815361023, 0.03173910453915596, 0.051904082298278809, -0.025276815518736839, -0.32531881332397461, -0.22281144559383392, -0.060799364000558853, -0.30702438950538635, 0.13992910087108612, -0.036299861967563629, -0.3347383439540863, 
  0.25155296921730042, 0.31327089667320251, 0.24273928999900818, -0.07660406082868576, 0.032566424459218979, 0.093217082321643829, -0.074120655655860901, 0.04574962705373764, 0.19519239664077759, -0.18302510678768158, -0.17730896174907684, -0.044711802154779434, -0.09963332861661911, 0.023605288937687874, 0.11284888535737991, -0.076483920216560364, -0.25723513960838318, -0.11983715742826462, -0.012613162398338318, -0.1679186075925827, -0.51851755380630493, -0.52479910850524902, -0.12678878009319305, -0.10246358066797256, -0.29063257575035095, 0.052758228033781052, -0.27380654215812683, 0.030966119840741158, 0.11679875105619431, 0.19047519564628601, -0.11081068217754364, -0.29026076197624207, 0.19235041737556458, 
  0.24008585512638092, -0.11370758712291718, -0.10719012469053268, 0.23133485019207001, 0.027950067073106766, -0.12494932115077972, 0.30118003487586975, -0.26342126727104187, 0.0024930841755121946, 0.0094078453257679939, 0.25474855303764343, 0.18206498026847839, 0.23958559334278107, 0.21254642307758331, 0.32801926136016846, -0.13161139190196991, 0.095012381672859192, 0.21649235486984253, -0.062714926898479462, -0.2153954803943634, -0.0057245665229856968, -0.034657448530197144, -0.027401875704526901, 0.094780653715133667, -0.063167884945869446, 0.56185537576675415, 0.064277991652488708, 0.1956932544708252, -0.18459542095661163, 0.18079236149787903, -0.24026387929916382, -0.35379871726036072, -0.18918460607528687, 
  0.11206027865409851, 0.23538167774677277, -0.11342101544141769, 0.15108941495418549, -0.18308526277542114, -0.085498519241809845, -0.014311338774859905, 0.10371211171150208, 0.034456439316272736, 0.057973522692918777, -0.084348186850547791, -0.18362314999103546, 0.21047788858413696, 0.030517498031258583, 0.57514715194702148, 0.12765814363956451, 0.14456292986869812, 0.0095375794917345047, -0.083416000008583069, 0.0014624787727370858, -0.13145573437213898, 0.010409980081021786, -0.32656699419021606, 0.43122851848602295, -0.19241806864738464, -0.085833154618740082, -0.18643447756767273, -0.16684123873710632, -0.26369592547416687, 0.16432487964630127, -0.32626360654830933, 0.018429232761263847, -0.059883181005716324, 
  0.065761454403400421, 0.17484113574028015, 0.31008926033973694, 0.065025575459003448, 0.18071956932544708, 0.093695595860481262, -0.27980488538742065, -0.13063919544219971, 0.070528879761695862, 0.029540771618485451, -0.20360475778579712, 0.25291767716407776, 0.21506583690643311, 0.12663558125495911, -0.30642157793045044, 0.1985146701335907, -0.11118753999471664, -0.38224261999130249, -0.27408403158187866, 0.2087862491607666, -0.0072502796538174152, -0.20516803860664368, 0.13106162846088409, -0.1972266286611557, 0.20181788504123688, -0.06002764031291008, 0.013800118118524551, -0.11713771522045135, -0.12530176341533661, -0.13707782328128815, -0.086393482983112335, -0.20393775403499603, -0.40340569615364075, 
  -0.16583099961280823, 0.15144100785255432, -0.029912929981946945, 0.19070574641227722, 0.28225600719451904, 0.21579562127590179, 0.14797599613666534, 0.21935103833675385, -0.17975705862045288, 0.066566772758960724, -0.16170696914196014, 0.12722600996494293, 0.16807258129119873, -0.017434678971767426, 0.11462157219648361, -0.24417385458946228, 0.23096808791160583, -0.1712501049041748, 0.087243311107158661, 0.0049565387889742851, -0.28902897238731384, -0.22803612053394318, -0.091001927852630615, 0.40032282471656799, 0.32805684208869934, 0.47996768355369568, -0.18775895237922668, 0.21907173097133636, 0.15002536773681641, -0.15485601127147675, 0.0542643703520298, -0.31334149837493896, 0.22415724396705627, 
  0.1247551217675209, -0.11440064758062363, -0.055212981998920441, -0.00086210889276117086, -0.02751762792468071, 0.15631157159805298, 0.16093823313713074, -0.09523145854473114, -0.081436336040496826, -0.50096404552459717, -0.54376047849655151, -0.033988188952207565, 0.05672653391957283, 0.1914808452129364, 0.10170812159776688, -0.057073984295129776, 0.019666010513901711, -0.056691247969865799, -0.15720659494400024, 0.23555873334407806, 0.073406636714935303, -0.68726056814193726, -0.090820178389549255, -0.21415813267230988, 0.2577061653137207, 0.10427553951740265, -0.026950214058160782, 0.27282401919364929, 0.051804345101118088, -0.12256019562482834, 0.15810802578926086, -0.15269872546195984, 0.1215345486998558, 
  0.24320858716964722, 0.22937487065792084, -0.21754947304725647, 0.12114387005567551, -0.39800858497619629, 0.061210706830024719, -0.10744493454694748, -0.12325364351272583, 0.083982512354850769, -0.19139538705348969, 0.090586759150028229, -0.034245103597640991, 0.44446790218353271, -0.12578229606151581, 0.2180188000202179, 0.27108776569366455, 0.13988932967185974, 0.034755062311887741, 0.067313410341739655, -0.27110704779624939, 0.017814517021179199, -0.056857354938983917, -0.055259197950363159, -0.026504436507821083, 0.22440572082996368, -0.10313064604997635, 0.13525649905204773, 0.039768073707818985, 0.022942373529076576, -0.036191996186971664, 0.028302440419793129, 0.1012599766254425, -0.13078081607818604, 
  0.019412688910961151, 0.21920543909072876, -0.21132716536521912, 0.13391463458538055, 0.016472596675157547, -0.25122863054275513, -0.11435213685035706, 0.13084478676319122, -0.091247789561748505, -0.18995976448059082, 0.26081079244613647, 0.26926642656326294, -0.10698182135820389, 0.081077948212623596, 0.26251277327537537, 0.32106491923332214, -0.030553372576832771, -0.32150891423225403, 0.14352709054946899, 0.32080608606338501, -0.052521683275699615, -0.145149827003479, -0.13989672064781189, -0.17181618511676788, 0.089091181755065918, -0.058018144220113754, 0.20204143226146698, 0.00037660851376131177, 0.083743162453174591, -0.10540241003036499, 0.13754795491695404, -0.1314714252948761, 0.053307808935642242, 
  -0.30423548817634583, 0.38983908295631409, -0.24908271431922913, 0.024622822180390358, -0.11485512554645538, 0.18511652946472168, 0.12632888555526733, -0.23056380450725555, 0.027981739491224289, 0.23335146903991699, 0.12112506479024887, 0.098297916352748871, -0.11741048097610474, -0.13799600303173065, 0.033457186073064804, 0.072123102843761444, -0.052636671811342239, 0.1262500137090683, 0.030177626758813858, 0.15379823744297028, -0.069019772112369537, -0.59750968217849731, -0.16388227045536041, -0.1805720180273056, 0.11935605853796005, -0.54348087310791016, -0.37203389406204224, -0.48472878336906433, 0.057093851268291473, 0.0054586045444011688, -0.083237811923027039, -0.17451660335063934, 0.15100891888141632, 
  0.17483791708946228, -0.20654952526092529, -0.093682914972305298, 0.028913885354995728, -0.20026698708534241, -0.023947989568114281, -0.27158591151237488, -0.024610342457890511, -0.049683220684528351, -0.32412818074226379, 0.17876842617988586, 0.15605312585830688, 0.16293318569660187, -0.15987206995487213, -0.20274916291236877, 0.25734823942184448, 0.14255484938621521, 0.15724456310272217, -0.35635694861412048, 0.06855735182762146, 0.069638691842556, -0.056328292936086655, 0.033934533596038818, 0.12009726464748383, -0.21089231967926025, 0.39899823069572449, -0.3443111777305603, 0.376334547996521, -0.34116101264953613, -0.56298625469207764, 0.080785103142261505, -0.20768176019191742, -0.45082622766494751, 
  0.20754258334636688, -0.050021912902593613, 0.016755731776356697, 0.14081911742687225, 0.072510965168476105, 0.047799285501241684, -0.21957980096340179, -0.040086653083562851, 0.022802248597145081, 0.10548420995473862, 0.36652883887290955, 0.089776024222373962, 0.068673171103000641, 0.053269777446985245, -0.046260520815849304, -0.013857146725058556, -0.022370491176843643, 0.12778513133525848, 0.23884853720664978, 0.20004613697528839, -0.094730816781520844, -0.26195737719535828, -0.1932474821805954, -0.35168987512588501, -0.28577351570129395, -0.086135588586330414, -0.17186422646045685, -0.031367212533950806, -0.1422702819108963, 0.031536456197500229, 0.160011887550354, -0.3312360942363739, -0.21849325299263, 
  -0.043565660715103149, 0.28966307640075684, -0.018742408603429794, 0.11003825813531876, 0.20979215204715729, -0.11480794101953506, 0.0357355996966362, -0.042149219661951065, -0.11823210120201111, -0.34773531556129456, 0.038580887019634247, 0.21864050626754761, -0.13976958394050598, 0.16450618207454681, 0.0291450135409832, -0.18215319514274597, 0.10148168355226517, -0.16325542330741882, -0.03179609403014183, 0.28610998392105103, -0.072095580399036407, -0.19920679926872253, -0.1546715646982193, 0.011541521176695824, -0.14663012325763702, -0.37684923410415649, 0.048221636563539505, 0.1098642572760582, -0.045638147741556168, 0.052446924149990082, -0.38569113612174988, 0.34770494699478149, -0.076995037496089935, 
  -0.064828045666217804, 0.08387698233127594, -0.26607856154441833, 0.084053762257099152, 0.043176941573619843, -0.039128851145505905, -0.016996815800666809, 0.055365957319736481, 0.074063606560230255, 0.17644631862640381, 0.12128783017396927, -0.11163052171468735, 0.04896414652466774, 0.17696602642536163, 0.085936322808265686, 0.015310791321098804, -0.10257215052843094, -0.14930525422096252, 0.20848271250724792, -0.070659980177879333, -0.036711718887090683, -0.0047031012363731861, -0.032578811049461365, -0.30797138810157776, -0.076943203806877136, 0.12439224869012833, 0.32785019278526306, 0.10506384819746017, -0.12771406769752502, 0.11028195172548294, 0.21313688158988953, 0.0022427947260439396, 0.050960291177034378, 
  -0.010129707865417004, -0.096253439784049988, 0.10963963717222214, -0.14749477803707123, 0.16517961025238037, -0.42658233642578125, -0.15835922956466675, -0.089495092630386353, 0.16800159215927124, -0.28347477316856384, 0.11088802665472031, 0.0078188441693782806, 0.077610798180103302, -0.19444297254085541, -0.3914756178855896, -0.10716326534748077, 0.23253655433654785, 0.26047396659851074, 0.12392976880073547, -0.2141154408454895, 0.077952265739440918, 0.10920847952365875, -0.11924140900373459, 0.24467191100120544, -0.15740521252155304, 0.087547481060028076, 0.013128792867064476, -0.16664718091487885, 0.12284021079540253, 0.10375635325908661, 0.14764206111431122, -0.29282623529434204, -0.058398939669132233, 
  -0.10510599613189697, 0.41207107901573181, 0.26524257659912109, 0.066790416836738586, -0.23088899254798889, 0.18659743666648865, -0.13671763241291046, -0.12081068754196167, 0.047063369303941727, -0.039524070918560028, 0.12657774984836578, 0.079175457358360291, 0.062657713890075684, 0.1776207834482193, -0.11615189909934998, 0.033534590154886246, -0.24790953099727631, -0.47296205163002014, 0.027776412665843964, -0.024989018216729164, -0.0081012258306145668, -0.28048750758171082, 0.098482489585876465, 0.23432889580726624, 0.19085164368152618, 0.29459702968597412, -0.097088448703289032, 0.23100666701793671, 0.1694902777671814, -0.13855034112930298, 0.057173315435647964, -0.12717948853969574, -0.33715888857841492, 
  0.018203971907496452, 0.036472644656896591, 0.19840170443058014, 0.18433058261871338, -0.21503065526485443, 0.25888064503669739, -0.30759376287460327, 0.089734949171543121, -0.018079619854688644, -0.12187804281711578, -0.27574190497398376, -0.012123370543122292, -0.13418491184711456, -0.27124443650245667, 0.30320107936859131, 0.17190691828727722, -0.25971001386642456, -0.17561104893684387, -0.2869580090045929, 0.17955474555492401, 0.0077420901507139206, -0.33781471848487854, -0.18494698405265808, -0.51527863740921021, 0.1443638801574707, -0.075628131628036499, 0.16822057962417603, 0.24656109511852264, 0.10707451403141022, 0.19414341449737549, -0.36154493689537048, -0.20733095705509186, -0.19173730909824371, 
  -0.1727830171585083, 0.027973359450697899, 0.18375104665756226, -0.012515945360064507, -0.045326285064220428, 0.056482989341020584, 0.18421372771263123, -0.18379634618759155, -0.023601341992616653, 0.085752859711647034, -0.16981515288352966, 0.17007902264595032, -0.37954294681549072, -0.34175240993499756, -0.40872287750244141, 0.41751077771186829, -0.31594905257225037, -0.0076500577852129936, 0.21107140183448792, 0.26790708303451538, -0.00489472271874547, -0.080303855240345001, -0.17916615307331085, -0.2867719829082489, 0.14197546243667603, -0.35305425524711609, -0.13531579077243805, -0.29159516096115112, 0.063956864178180695, 0.011554698459804058, 0.11719260364770889, -0.15861205756664276, -0.26848423480987549, 
  -0.17738789319992065, 0.11139091849327087, 0.24330794811248779, -0.023227479308843613, 0.23112046718597412, 0.18340416252613068, -0.010452556423842907, 0.077708274126052856, 0.096653290092945099, -0.31518733501434326, -0.31022253632545471, -0.0096209943294525146, -0.0003680677036754787, -0.28091078996658325, -0.17718768119812012, 0.00047402339987456799, 0.22157780826091766, 0.043493319302797318, -0.15699480473995209, 0.040987458080053329, -0.18364335596561432, -0.25169077515602112, 0.084638543426990509, 0.23627179861068726, 0.010796389542520046, -0.035810276865959167, 0.08286207914352417, -0.010690391063690186, 0.18776823580265045, 0.15267632901668549, 0.12733912467956543, 0.091945260763168335, -0.0055239894427359104, 
  -0.29066571593284607, -0.19375795125961304, -0.134781613945961, -0.17015272378921509, -0.0062242364510893822, -0.034308832138776779, -0.18610145151615143, -0.35974216461181641, -0.25529071688652039, -0.49874475598335266, -0.49584454298019409, 0.034672848880290985, 0.31472155451774597, -0.082293495535850525, 0.38267078995704651, -0.037101790308952332, -0.16915003955364227, 0.04941524937748909, 0.062882684171199799, 0.096993729472160339, 0.075883068144321442, -0.44068306684494019, 0.090745702385902405, 0.021813198924064636, 0.21127261221408844, 0.20675848424434662, 0.10219325870275497, 0.16197314858436584, 0.20266224443912506, 0.053682144731283188, 0.1714358776807785, 0.10401466488838196, 0.053057346493005753, 
  0.019707899540662766, 0.31211793422698975, 0.20217405259609222, 0.30959591269493103, -0.025612559169530869, 0.30953940749168396, -0.11700417101383209, -0.18027405440807343, 0.058450914919376373, 0.12207306176424026, -0.51039308309555054, 0.13011275231838226, 0.22194021940231323, 0.22498691082000732, 0.11902284622192383, -0.038875747472047806, 0.3252359926700592, 0.17813709378242493, -0.24210582673549652, 0.093628823757171631, -0.059928774833679199, -0.03555605560541153, -0.025495937094092369, 0.55170124769210815, -0.21554462611675262, 0.28279849886894226, 0.19628599286079407, -0.10983224213123322, -0.22995667159557343, 0.19236484169960022, -0.20845533907413483, 0.066437363624572754, -0.35927021503448486, 
  -0.01746591180562973, -0.044644322246313095, -0.018709845840930939, -0.27891570329666138, -0.18031798303127289, 0.088143475353717804, -0.089387208223342896, 0.091673843562602997, -0.1395932137966156, 0.26761823892593384, -0.0072085065767168999, 0.012335737235844135, 0.017656238749623299, -0.11151347309350967, 0.054144099354743958, 0.16962316632270813, 0.057680230587720871, 0.052892386913299561, 0.13510966300964355, 0.11604670435190201, 0.0089546460658311844, -0.18706433475017548, 0.13266941905021667, -0.19157493114471436, -0.15179078280925751, -0.25536102056503296, 0.17587998509407043, -0.23521742224693298, 0.28925848007202148, 0.010066373273730278, 0.18109776079654694, -0.12640504539012909, -0.31139248609542847, 
  -0.12941303849220276, 0.2648891806602478, -0.10024650394916534, 0.052935454994440079, -0.15737709403038025, 0.066557072103023529, -0.19362607598304749, -0.036595989018678665, 0.13122934103012085, 0.27994686365127563, 0.14166736602783203, 0.073871567845344543, 0.31469514966011047, 0.1259029358625412, -0.048684213310480118, 0.28660321235656738, 0.25013765692710876, 0.11197333782911301, -0.029561551287770271, 0.13843530416488647, -0.092932805418968201, -0.13528148829936981, 0.10990096628665924, -0.15638436377048492, 0.15339840948581696, -0.15953882038593292, 0.077040567994117737, 0.080327622592449188, -0.026303296908736229, -0.048447702080011368, -0.15407499670982361, -0.17984355986118317, -0.16924664378166199, 
  0.14289450645446777, -0.032690946012735367, 0.20410561561584473, 0.17455561459064484, -0.043488889932632446, 0.23412799835205078, -0.12740977108478546, 0.12180045992136002, -0.1292254626750946, -0.33244770765304565, -0.16106502711772919, 0.083200685679912567, 0.23969227075576782, 0.0025950733106583357, 0.21428497135639191, -0.22750265896320343, -0.11858199536800385, -0.17261572182178497, 0.065705947577953339, -0.082359910011291504, -0.30954459309577942, -0.49516427516937256, 0.062695488333702087, 0.40726929903030396, 0.21135018765926361, 0.37106403708457947, 0.18493087589740753, 0.13853247463703156, -0.059702925384044647, -0.023473488166928291, 0.16507504880428314, 0.18817822635173798, -0.13727141916751862, 
  -0.15744307637214661, -0.4748019278049469, -0.37563437223434448, -0.39441785216331482, -0.11235306411981583, -0.21155528724193573, -0.2397601306438446, 0.19727286696434021, -0.11006384342908859, 0.32796880602836609, -0.014260569587349892, -0.30280354619026184, -0.70998454093933105, -0.42050981521606445, -0.27380684018135071, -0.085265971720218658, -0.45888972282409668, -0.1854863166809082, 0.071508891880512238, 0.10864972323179245, 0.067608259618282318, 0.029508743435144424, -0.41317868232727051, -0.75897401571273804, -0.10266007483005524, -0.49816444516181946, -0.023484658449888229, -0.48452460765838623, -0.27556079626083374, 0.042626716196537018, -0.042847916483879089, -0.12221688032150269, -0.10668887943029404, 
  -0.25706610083580017, -0.51593255996704102, -0.057329077273607254, -0.18882621824741364, 0.045444279909133911, 0.078419953584671021, 0.16043812036514282, -0.0704512819647789, -0.22280251979827881, -0.19577297568321228, 0.15072797238826752, 0.043502643704414368, -0.53688132762908936, -0.0060807843692600727, 0.17182062566280365, 0.34231919050216675, 0.1967264860868454, -0.14012622833251953, 0.1210845410823822, -0.055072318762540817, 0.060823395848274231, -0.43837326765060425, 0.002290183212608099, -0.12117018550634384, 0.10440566390752792, -0.025876574218273163, 0.08194374293088913, -0.36504775285720825, -0.18193294107913971, 0.11471028625965118, 0.14600940048694611, -0.16323199868202209, -0.11959058046340942, 
  -0.0015571472467854619, 0.35661625862121582, 0.35605126619338989, -0.042981643229722977, -0.016483504325151443, 0.034541934728622437, -0.19183048605918884, 0.094723306596279144, 0.13784810900688171, 0.038748983293771744, -0.11749976128339767, 0.11337972432374954, 0.048462852835655212, -0.30601102113723755, 0.00014152086805552244, -0.20482231676578522, -0.12822507321834564, 0.18862155079841614, -0.32976678013801575, 0.049944419413805008, 0.021711366251111031, -0.045125760138034821, -0.003245057538151741, 0.053643416613340378, 0.22349341213703156, 0.17642314732074738, -0.34559720754623413, -0.30223166942596436, -0.079789362847805023, -0.18543225526809692, 0.011519287712872028, -0.24949263036251068, 0.062722086906433105, 
  0.038833990693092346, 0.063222728669643402, 0.10224814713001251, 0.067755378782749176, -0.1695246547460556, -0.20579323172569275, -0.29295051097869873, -0.073312900960445404, 0.14751897752285004, 0.077712863683700562, -0.48477402329444885, -0.034959498792886734, 0.10728434473276138, -0.31579014658927917, -0.11494681239128113, -0.076988860964775085, 0.06545102596282959, 0.079614840447902679, -0.27989965677261353, 0.1837945431470871, -0.015122443437576294, 0.06270754337310791, 0.027803929522633553, 0.39441943168640137, 0.006807432509958744, 0.35673284530639648, -0.0038042324595153332, 0.39621126651763916, 0.15670417249202728, 0.13687796890735626, -0.28104612231254578, -0.17732664942741394, -0.24918957054615021, 
  -0.10281515866518021, 0.21675299108028412, 0.14811450242996216, 0.33224520087242126, -0.174786776304245, 0.19739934802055359, -0.030611272901296616, -0.141378253698349, 0.084634460508823395, -0.17848770320415497, -0.11983843147754669, -0.0065839029848575592, 0.41280475258827209, -0.16157136857509613, 0.21144258975982666, -0.25195103883743286, 0.12800849974155426, 0.46367344260215759, -0.056133855134248734, -0.41341817378997803, -0.17628513276576996, -0.048624381422996521, -0.22351928055286407, -0.14395530521869659, -0.22882568836212158, 0.13447809219360352, -0.077587194740772247, -0.28206086158752441, -0.21813897788524628, -0.041712764650583267, 0.2102135568857193, 0.33847910165786743, 0.049628544598817825, 
  0.22660411894321442, 0.22075016796588898, -0.096623621881008148, -0.20503760874271393, -0.17771619558334351, -0.041954133659601212, -0.25043106079101562, 0.1235833466053009, 0.02046537771821022, -0.0082869092002511024, 0.22176472842693329, -0.040078070014715195, 0.13199006021022797, -0.022451587021350861, 0.34290260076522827, -0.046671424061059952, 0.037310179322957993, 0.0010868094395846128, 0.0046263961121439934, -0.31272497773170471, 0.011240635998547077, -0.03080407902598381, 0.2782139778137207, -0.21025432646274567, 0.18283961713314056, -0.24429677426815033, 0.016127150505781174, 0.068421706557273865, -0.071270503103733063, -0.10618799924850464, 0.018516300246119499, -0.20553721487522125, -0.037975292652845383, 
  -0.11545807123184204, -0.23072174191474915, 0.13320693373680115, -0.20144347846508026, -0.0050093117170035839, 0.21793380379676819, 0.13404998183250427, 0.15051935613155365, 0.06515367329120636, -0.060385305434465408, 0.27821868658065796, -0.04017547145485878, 0.098821327090263367, -0.20069834589958191, -0.17864048480987549, -0.021032115444540977, -0.11895815283060074, 0.037218581885099411, 0.21404214203357697, 0.15326812863349915, -0.33215442299842834, -0.070669762790203094, -0.17744438350200653, 0.039796829223632812, -0.13915203511714935, -0.22409741580486298, 0.17997586727142334, -0.0021689136046916246, -0.21051247417926788, -0.16087484359741211, -0.11282788217067719, -0.052328586578369141, 0.19391581416130066, 
  0.15885452926158905, -0.17895500361919403, 0.13399025797843933, 0.18985871970653534, -0.34351980686187744, -0.016334401443600655, 0.3258819580078125, -0.085563249886035919, 0.12175718694925308, -0.27182644605636597, -0.018358122557401657, 0.069891937077045441, -0.40581142902374268, -0.18684285879135132, -0.25144025683403015, 0.14549201726913452, -0.032804761081933975, -0.25845485925674438, 0.02119244821369648, -0.048149198293685913, -0.25904324650764465, -0.01082115899771452, -0.010919141583144665, 0.094128936529159546, 0.04881657287478447, 0.12146151065826416, -0.25045987963676453, 0.30656138062477112, -0.090464018285274506, 0.14028351008892059, 0.21598388254642487, 0.0049803555011749268, -0.043434064835309982, 
  -0.17066681385040283, -0.017015397548675537, -0.25863376259803772, -0.053704429417848587, 0.032042302191257477, -0.15550060570240021, -0.24769647419452667, 0.069867938756942749, 0.2328723669052124, 0.31382155418395996, 0.17816875874996185, 0.25656798481941223, -0.2082010805606842, -0.0037601834628731012, -0.58797919750213623, 0.060325250029563904, -0.21138553321361542, 0.15565705299377441, 0.13321638107299805, 0.13750031590461731, -0.15218091011047363, -0.40322199463844299, -0.22860942780971527, -0.33327624201774597, 0.12449389696121216, -0.18955251574516296, -0.25870111584663391, 0.15745826065540314, 0.15638560056686401, -0.072536088526248932, 0.091881699860095978, 0.021288683637976646, 0.14629606902599335, 
  0.24493652582168579, -0.28412145376205444, 0.16374263167381287, 0.11342866718769073, -0.021143538877367973, -0.11032304167747498, -0.22508275508880615, -0.02003234438598156, 0.076321274042129517, -0.080129936337471008, -0.083239845931529999, -0.20573782920837402, 0.10825660079717636, 0.08642490953207016, -0.082350701093673706, 0.18170052766799927, 0.25039362907409668, 0.18960736691951752, -0.1802041083574295, -0.23452121019363403, -0.10103391110897064, -0.066836856305599213, 0.16214205324649811, -0.39742264151573181, 0.077771268784999847, -0.013839725404977798, 0.15061518549919128, 0.11096673458814621, 0.02979712001979351, -0.01448423508554697, -0.25388774275779724, -0.14773750305175781, -0.35717606544494629, 
  0.20881606638431549, -0.10198995471000671, -0.093136675655841827, -0.015036346390843391, -0.12407171726226807, -0.041472822427749634, 0.23710530996322632, -0.28083100914955139, -0.22017508745193481, -0.27709260582923889, 0.028474491089582443, -0.27849560976028442, -0.22389616072177887, -0.27938082814216614, 0.19369342923164368, 0.19320407509803772, -0.55762863159179688, 0.18512533605098724, -0.17789162695407867, -0.22779908776283264, 0.10595975816249847, -0.056469447910785675, 0.18839646875858307, -0.22553855180740356, 0.16132599115371704, 0.1005452498793602, 0.0029024933464825153, 0.24569077789783478, 0.25420248508453369, 0.027475856244564056, 0.31220546364784241, -0.25866550207138062, 0.10005396604537964, 
  -0.015541682951152325, -0.1328328400850296, -0.34215188026428223, -0.20986032485961914, 0.16712930798530579, -0.094461537897586823, -0.1352560818195343, 0.12933807075023651, 0.16512234508991241, 0.11700980365276337, -0.10067144781351089, -0.22977209091186523, -0.26245385408401489, 0.014007154852151871, 0.34648928046226501, 0.28086382150650024, 0.35533133149147034, 0.10336142778396606, -0.18075111508369446, 0.24160142242908478, -0.061555363237857819, -0.29449260234832764, 0.22030267119407654, -0.23110286891460419, 0.20768879354000092, 0.08944268524646759, -0.029977716505527496, 0.05386064201593399, -0.36136656999588013, -0.12895572185516357, 0.23470334708690643, -0.30795666575431824, 0.13014900684356689, 
  -0.096506960690021515, 0.11548353731632233, -0.071783006191253662, 0.25594305992126465, -0.17112159729003906, 0.030123719945549965, -0.023777715861797333, -0.20178638398647308, 0.25424528121948242, -0.026388661935925484, 0.11094110459089279, 0.23940236866474152, 0.012031851336359978, -0.094976715743541718, 0.011997443623840809, 0.23864053189754486, -0.25782784819602966, -0.18241365253925323, -0.27027717232704163, 0.17542549967765808, -0.18760465085506439, -0.23834042251110077, 0.01798495277762413, -0.08178410679101944, -0.32840621471405029, -0.32634863257408142, -0.092207744717597961, 0.027091989293694496, -0.061375226825475693, -0.15870018303394318, -0.47293788194656372, 0.47513717412948608, 0.0082276538014411926, 
  0.13356366753578186, 0.079390645027160645, 0.1111309602856636, -0.22354663908481598, 0.34087178111076355, -0.36030593514442444, 0.30346688628196716, 0.088671475648880005, -0.13060027360916138, 0.15763349831104279, 0.42642378807067871, -0.025366446003317833, -0.070148855447769165, -0.032587707042694092, 0.26592794060707092, 0.082695126533508301, -0.25007990002632141, 0.24191144108772278, -0.29521676898002625, 0.023889057338237762, -0.15343159437179565, -0.33291131258010864, -0.14190135896205902, -0.011293727904558182, -0.19509337842464447, -0.20477278530597687, 0.01418677344918251, 0.087768629193305969, 0.00725937495008111, 0.16429322957992554, -0.095858946442604065, 0.085094287991523743, -0.0066079841926693916, 
  0.13222739100456238, 0.064688399434089661, 0.29554766416549683, 0.026845803484320641, 0.014436096884310246, -0.017108539119362831, -0.26421493291854858, -0.041515979915857315, 0.066822655498981476, -0.31937029957771301, -0.048113033175468445, 0.11046009510755539, 0.084100775420665741, -0.059175685048103333, 0.13596729934215546, -0.16410289704799652, 0.13928861916065216, -0.0063076089136302471, 0.072664350271224976, -0.1129087507724762, -0.11712091416120529, -1.0576008558273315, 0.2110179215669632, 0.22737228870391846, 0.22042050957679749, 0.19829539954662323, 0.17039373517036438, 0.015653526410460472, 0.098914414644241333, 0.15895116329193115, -0.028890799731016159, -0.14940011501312256, -0.02998708002269268, 
};
const TfArray<2, int> tensor_dimension6 = { 2, { 64,33 } };
const ALIGN(8) float tensor_data7[32*64] = { 
  -0.029593300074338913, -0.14816704392433167, -0.046002842485904694, 0.07581646740436554, 0.2378864586353302, -0.15028376877307892, -0.18864873051643372, 0.13934172689914703, 0.21018996834754944, 0.15085887908935547, -0.24611343443393707, 0.20502093434333801, 0.14801837503910065, -0.29992163181304932, 0.089313730597496033, -0.34097295999526978, -0.038166996091604233, 0.14097075164318085, -0.27258443832397461, -0.55337965488433838, -0.15732978284358978, -0.22181792557239532, 0.16464047133922577, 0.015857739374041557, 0.096898451447486877, -0.20903754234313965, 0.18694283068180084, 0.014146032743155956, 0.11695483326911926, -0.063887037336826324, 0.011939862743020058, -0.76470094919204712, -0.31206133961677551, -0.21569612622261047, -0.11373452097177505, 0.37354016304016113, -0.20066653192043304, -0.41708514094352722, -0.12832355499267578, -0.19457414746284485, -0.0073544164188206196, 0.10668268799781799, 0.020105943083763123, -0.16304580867290497, 0.12164682149887085, 0.11442050337791443, -0.34126099944114685, -0.19573917984962463, 0.12275364249944687, -0.14648284018039703, 0.29251426458358765, 0.1812012642621994, 0.0083833243697881699, -0.26046860218048096, -0.17033529281616211, 0.19625823199748993, -0.17681828141212463, -0.052213288843631744, 0.27898377180099487, 0.46006622910499573, 0.11586582660675049, -0.35733920335769653, -0.04231155663728714, -0.07054474949836731, 
  -0.22588811814785004, -0.21954345703125, 0.037544224411249161, 0.1895250678062439, -0.12439247220754623, -0.17552363872528076, 0.0072223632596433163, -0.02816438302397728, 0.1234489306807518, 0.073663540184497833, 0.046215180307626724, -0.13463802635669708, 0.11307963728904724, 0.051512088626623154, 0.14598096907138824, -0.065270908176898956, -0.21282245218753815, 0.29764857888221741, 0.025255791842937469, -0.1278739869594574, -0.087626613676548004, 0.26732179522514343, 0.013088317587971687, 0.20513291656970978, 0.2441340833902359, 0.1423763781785965, -0.40026813745498657, -0.25251293182373047, -0.066195093095302582, -0.32089069485664368, 0.055139839649200439, -0.18832987546920776, -0.38476520776748657, 0.069251693785190582, 0.11091447621583939, 0.27475523948669434, -0.060029547661542892, -0.0076859169639647007, 0.12545302510261536, 0.14967745542526245, 0.036855883896350861, -0.22376750409603119, 0.26915466785430908, 0.14394687116146088, 0.069159410893917084, -0.082357808947563171, -0.1275150328874588, -0.10782114416360855, -0.31232982873916626, 0.12786567211151123, -0.038467355072498322, 0.055408388376235962, 0.0090895351022481918, -0.019388604909181595, 0.1954336017370224, 0.12771525979042053, -0.027995707467198372, -0.035630390048027039, -0.1906450092792511, 0.0047285677865147591, 0.00034470521495677531, -0.3647097647190094, 0.042064223438501358, -0.22668689489364624, 
  -0.12062691152095795, -0.26050302386283875, 0.01908465288579464, -0.273427814245224, 0.21815820038318634, -0.0099000036716461182, -0.23926939070224762, -0.1741911917924881, -0.13262277841567993, -0.11565674841403961, 0.056907236576080322, 0.10084763914346695, 0.12180915474891663, 0.22130255401134491, 0.18155668675899506, -0.096266642212867737, 0.31394591927528381, -0.25184562802314758, 0.19543872773647308, -0.15493889153003693, 0.16153165698051453, 0.16093765199184418, -0.30179890990257263, -0.069429099559783936, 0.027460502460598946, 0.17542445659637451, 0.073924869298934937, 0.17901380360126495, 0.12035864591598511, -0.082532867789268494, 0.087687388062477112, -0.095177344977855682, 0.063904836773872375, 0.16490837931632996, -0.65876424312591553, 0.27498450875282288, -0.010114420205354691, -0.28978076577186584, 0.21187067031860352, -0.20123150944709778, 0.093728609383106232, -0.065921187400817871, -0.2185671329498291, -0.19726087152957916, 0.069375380873680115, 0.14905592799186707, 0.076109983026981354, 0.14772361516952515, -0.14509403705596924, 0.019288543611764908, -0.179046630859375, -0.14607852697372437, 0.21877726912498474, -0.35561877489089966, 0.017495432868599892, -0.22248421609401703, 0.10642806440591812, -0.30003112554550171, -0.0068300571292638779, -0.002264959504827857, 0.27083662152290344, 0.21695969998836517, 0.038852054625749588, -0.025086840614676476, 
  0.064392887055873871, -0.08131890743970871, -0.036261778324842453, -0.71392661333084106, -0.11837665736675262, -0.032415453344583511, 0.17416514456272125, 0.032819978892803192, -0.065748251974582672, 0.19905821979045868, -0.18016903102397919, 0.095766879618167877, -0.083456330001354218, -0.076937124133110046, 0.32196170091629028, -0.095447495579719543, -0.09852677583694458, 0.096762873232364655, 0.070736460387706757, 0.083579398691654205, 0.0025485032238066196, -0.055321592837572098, -0.68286091089248657, -0.017975062131881714, -0.26326268911361694, 0.13380728662014008, -0.46593263745307922, -0.26967933773994446, -0.20536059141159058, 0.21486106514930725, -0.32616433501243591, 0.25634309649467468, -0.093489758670330048, 0.038321968168020248, -0.12806639075279236, 0.31883087754249573, 0.067524664103984833, -0.027806071564555168, -0.10953456908464432, 0.11948894709348679, -0.41099312901496887, 0.46607735753059387, 0.24243380129337311, 0.0066000022925436497, -0.43392381072044373, 0.13224101066589355, 0.19871257245540619, -0.054675575345754623, -0.29051962494850159, -0.03749457374215126, -0.066443011164665222, 0.1523546427488327, -0.12648208439350128, -0.26659342646598816, -0.12996956706047058, -0.18671898543834686, -0.086441159248352051, 0.18079261481761932, -0.003992016427218914, 0.097218886017799377, -0.095970794558525085, -0.083948872983455658, -0.02196427620947361, -0.52051657438278198, 
  0.082403749227523804, 0.098129957914352417, 0.15519650280475616, 0.039044000208377838, -0.17080757021903992, 0.13259328901767731, 0.19722563028335571, 0.13125976920127869, 0.22687652707099915, 0.19528196752071381, -0.14101332426071167, -0.13127240538597107, -0.086278423666954041, -0.30868086218833923, -0.49930164217948914, -0.37774580717086792, -0.33366197347640991, -0.030064858496189117, 0.26114165782928467, 0.076195023953914642, -0.093109853565692902, -0.05437132716178894, -0.26810383796691895, -0.058338027447462082, -0.0037300274707376957, 0.011020917445421219, -0.22516588866710663, -0.25506854057312012, 0.064379326999187469, -0.25983941555023193, -0.16517531871795654, 0.23714065551757812, 0.10747776180505753, 0.25802892446517944, 0.261781245470047, -0.0091485902667045593, -0.17237706482410431, -0.13826681673526764, 0.080699756741523743, 0.022262491285800934, 0.055921636521816254, 0.2123209685087204, 0.2470996230840683, 0.1936623752117157, -0.010887752287089825, 0.23527315258979797, 0.016118366271257401, -0.084306567907333374, -0.28566959500312805, 0.15443879365921021, -0.094153262674808502, -0.06547100841999054, 0.0096420580521225929, 0.2303442507982254, -0.038286373019218445, -0.19216589629650116, -0.047722630202770233, 0.24551288783550262, -0.29699656367301941, -0.12673360109329224, 0.25951936841011047, 0.09632246196269989, 0.18190252780914307, -0.073489837348461151, 
  0.14033970236778259, -0.29321464896202087, 0.16800728440284729, 0.028345987200737, -0.16292732954025269, -0.17926211655139923, 0.26448559761047363, -0.23619167506694794, -0.078262783586978912, 0.060142315924167633, 0.17486150562763214, -0.30898863077163696, -0.26273888349533081, 0.093415267765522003, -0.079301387071609497, -0.13091477751731873, -0.11097684502601624, 0.032455600798130035, 0.025992970913648605, 0.31252312660217285, -0.043860539793968201, -0.043443165719509125, -0.064160652458667755, 0.23987947404384613, 0.032979950308799744, 0.019687078893184662, -0.24125288426876068, -0.40797516703605652, -0.10871798545122147, 0.25873321294784546, 0.22244319319725037, 0.15065211057662964, -0.32360506057739258, 0.22224374115467072, 0.052265115082263947, 0.37608581781387329, -0.15267886221408844, 0.067060843110084534, 0.070854984223842621, -0.18352477252483368, -0.066790081560611725, -0.30474981665611267, -0.38781863451004028, 0.11147403717041016, -0.028281364589929581, 0.037237830460071564, 0.06280343234539032, -0.27943077683448792, 0.12361017614603043, -0.041792325675487518, 0.14758595824241638, -0.12586778402328491, 0.10335950553417206, 0.24405165016651154, -0.064506828784942627, -0.027950476855039597, -0.072465665638446808, -0.066441945731639862, -0.36315512657165527, -0.2513255774974823, -0.11158977448940277, -0.71578794717788696, 0.16362567245960236, -0.28580978512763977, 
  0.12165341526269913, 0.19516752660274506, -0.032727848738431931, -0.27180296182632446, 0.020161401480436325, -0.066659398376941681, -0.091553039848804474, -0.10909473150968552, -0.10435400158166885, 0.0079585406929254532, 0.20149271190166473, -0.057908717542886734, 0.11262857168912888, -0.16100022196769714, -0.34742403030395508, 0.048135027289390564, 0.17888760566711426, -0.067771226167678833, 0.0088018374517560005, 0.34627026319503784, -0.21062332391738892, -0.043719608336687088, -0.055295590311288834, 0.15118028223514557, -0.20224554836750031, 0.043707128614187241, 0.1260455995798111, -0.098046600818634033, 0.20462819933891296, -0.18750487267971039, -0.32541438937187195, -0.25453811883926392, 0.087735958397388458, -0.20334774255752563, 0.061794403940439224, 0.032643157988786697, -0.30236080288887024, 0.30891361832618713, -0.044001609086990356, -0.052254669368267059, -0.21530747413635254, -0.24598731100559235, 0.44689857959747314, 0.21129126846790314, 0.078597038984298706, 0.30991989374160767, 0.0296634491533041, -0.1948668509721756, -0.064903482794761658, 0.10863091796636581, 0.0035837406758219004, 0.1833483874797821, 0.095586858689785004, 0.35635513067245483, 0.045656010508537292, 0.058729499578475952, -0.14701686799526215, 0.016198549419641495, -0.20686008036136627, -0.16890454292297363, 0.136396124958992, -0.35600206255912781, -0.25185763835906982, 0.14381968975067139, 
  -0.25090122222900391, 0.15504476428031921, 0.15159253776073456, 0.78452974557876587, 0.55605703592300415, -0.016142912209033966, 0.14539825916290283, 0.059052396565675735, -0.45038047432899475, -0.29863747954368591, -0.22368957102298737, -0.12548618018627167, 0.07484494149684906, -0.30847093462944031, 0.18394942581653595, 0.14298216998577118, -0.35778218507766724, 0.28245317935943604, 0.14176246523857117, -0.12716315686702728, 0.24587403237819672, -0.37630179524421692, 0.36470767855644226, -0.0037287434097379446, -0.11908874660730362, 0.176345095038414, -0.20382547378540039, -0.14937050640583038, -0.3087669312953949, 0.08760640025138855, -0.2524954080581665, -0.13257633149623871, 0.052642840892076492, 0.24537728726863861, 0.93370318412780762, 0.19388708472251892, -0.29150289297103882, 0.20542216300964355, -0.28616142272949219, -0.22868265211582184, 0.02130701020359993, -0.28402629494667053, 0.18698945641517639, -0.49121421575546265, 0.16997538506984711, -0.23436486721038818, -0.059651616960763931, 0.083226621150970459, -0.20059974491596222, -0.12334787100553513, 0.33964055776596069, -0.47593080997467041, -0.075692631304264069, -0.56958568096160889, -0.39886847138404846, 0.33370065689086914, -0.27101466059684753, 0.28508633375167847, -0.33465027809143066, -0.6171952486038208, 0.14310604333877563, 0.058858573436737061, -0.12833224236965179, -0.011005157604813576, 
  -0.021852161735296249, 0.15641756355762482, 0.0071305464953184128, -0.037412155419588089, -0.097720824182033539, -0.27264323830604553, 0.32829120755195618, 0.19657562673091888, -0.032057996839284897, 0.035299580544233322, -0.33120203018188477, 0.21708118915557861, -0.069970458745956421, -0.11188222467899323, 0.14739741384983063, 0.049437336623668671, -0.13159210979938507, -0.092592887580394745, 0.063512660562992096, -0.15203069150447845, -0.4201141893863678, -0.043289292603731155, -0.03210129588842392, 0.13036355376243591, 0.23224101960659027, -0.17740170657634735, -0.43481290340423584, 0.17525108158588409, -0.37331882119178772, 0.06737721711397171, -0.22511076927185059, -0.36444264650344849, 0.050290610641241074, -0.23956961929798126, -0.2082793116569519, -0.061180960386991501, 0.18637654185295105, -0.088588684797286987, -0.076217524707317352, -0.021273534744977951, 0.15487237274646759, -0.0020211788360029459, -0.16333109140396118, -0.10086649656295776, 0.35156384110450745, 0.23061859607696533, -0.32774645090103149, 0.13665439188480377, 0.0068943803198635578, -0.22788925468921661, -0.47124466300010681, -0.026782805100083351, -0.29991438984870911, -0.47554668784141541, 0.18721212446689606, -0.34688439965248108, -0.1891838014125824, -0.1426059901714325, 0.24361103773117065, -0.52058953046798706, -0.19588780403137207, 0.2068638801574707, 0.34972900152206421, 0.035706803202629089, 
  -0.099854446947574615, 0.14115007221698761, 0.24814042448997498, -0.15549953281879425, -0.078467421233654022, 0.23587553203105927, 0.45990583300590515, 0.24292470514774323, -0.36733365058898926, 0.13732519745826721, 0.078091546893119812, 0.10419382154941559, -0.22017017006874084, 0.12937641143798828, 0.27672106027603149, 0.062711246311664581, -0.088152259588241577, -0.020896708592772484, -0.23434029519557953, 0.41858264803886414, 0.094220779836177826, -0.027463261038064957, 0.1920313686132431, -0.17408563196659088, 0.00065082369837909937, 0.049764811992645264, 0.00596980145201087, 0.051124382764101028, -0.1871233731508255, -0.20807744562625885, 0.20816522836685181, 0.083820268511772156, 0.19736948609352112, -0.43434971570968628, 0.54163002967834473, -0.1436113566160202, -0.061172600835561752, 0.43250638246536255, -0.142881840467453, -0.11002681404352188, -0.10413222759962082, 0.059733118861913681, 0.25114741921424866, 0.16663229465484619, 0.1412910670042038, 0.21757404506206512, -0.17381395399570465, -0.14792168140411377, 0.039327133446931839, 0.15763729810714722, 0.34791627526283264, 0.058989673852920532, -0.014390767551958561, -0.229044109582901, 0.15866261720657349, -0.087715722620487213, -0.19116808474063873, -0.13609312474727631, 0.10449341684579849, 0.23316580057144165, -0.21545709669589996, -0.17154005169868469, -0.075843065977096558, 0.071220748126506805, 
  -0.07541096955537796, 0.19086523354053497, -0.067027285695075989, 0.0073948884382843971, 0.19948321580886841, -0.049644220620393753, 0.44277083873748779, 0.15845169126987457, -0.058529164642095566, -0.050714697688817978, -0.16614051163196564, 0.2123064249753952, 0.16866141557693481, 0.17319552600383759, -0.33167049288749695, -0.18517644703388214, -0.021645462140440941, -0.081479355692863464, -0.14271348714828491, -0.18356473743915558, -0.30480214953422546, 0.07921532541513443, 0.32909968495368958, -0.19035719335079193, -0.072770826518535614, -0.17470882833003998, 0.074582107365131378, -0.038923721760511398, 0.041190426796674728, 0.12678667902946472, -0.25836575031280518, 0.017400488257408142, -0.0023494944907724857, 0.17212644219398499, 0.11326179653406143, -0.3892521858215332, 0.018271816894412041, 0.25459983944892883, -0.19738040864467621, -0.17007534205913544, 0.24736437201499939, 0.04689372330904007, -0.0372358039021492, 0.20064333081245422, -0.13618369400501251, 0.14458133280277252, 0.087239637970924377, -0.06715364009141922, 0.095322482287883759, 0.018581662327051163, 0.053665008395910263, -0.14518445730209351, 0.092237070202827454, -0.25266674160957336, -0.12068351358175278, -0.038721468299627304, 0.18886660039424896, 0.22722078859806061, -0.2460048645734787, 0.1729075014591217, 0.027190752327442169, -0.3483334481716156, -0.24610783159732819, 0.14566294848918915, 
  0.13282948732376099, 0.026944320648908615, -0.12749667465686798, 0.55515331029891968, -0.072633594274520874, 0.23238043487071991, -0.042291067540645599, 0.10882724821567535, 0.052616998553276062, -0.30598291754722595, 0.39910468459129333, 0.21990220248699188, -0.057957246899604797, -0.29913994669914246, -0.042497202754020691, 0.11957059055566788, -0.33803316950798035, 0.32818859815597534, -0.24081125855445862, -0.4157002866268158, 0.059957068413496017, -0.06105857715010643, 0.083448216319084167, 0.047805659472942352, -0.58410489559173584, -0.072999030351638794, 0.27137243747711182, -0.0092951124534010887, -0.1392596960067749, -0.016623847186565399, -0.043192140758037567, -0.12784105539321899, -0.25062018632888794, 0.040882036089897156, 0.61886918544769287, 0.19166509807109833, 0.13070391118526459, -0.14683480560779572, -0.22913350164890289, -0.28225401043891907, 0.10723124444484711, 0.34162142872810364, 0.041173379868268967, -0.2112712562084198, -0.24080218374729156, 0.23004443943500519, -0.073193997144699097, 0.24783778190612793, 0.12309008836746216, -0.16988471150398254, 0.027520345523953438, 0.27343413233757019, 0.21292762458324432, -0.2175360769033432, -0.24981740117073059, 0.18685412406921387, -0.096750557422637939, -0.10304667055606842, 0.10684292018413544, 0.42410719394683838, -0.16474694013595581, -0.39113301038742065, 0.069394886493682861, -0.26776635646820068, 
  0.21158525347709656, -0.22426740825176239, 0.087670899927616119, 0.37233051657676697, -0.087519749999046326, 0.40053176879882812, 0.45574134588241577, -0.025401603430509567, -0.049794226884841919, -0.17709948122501373, -0.14057908952236176, 0.048982799053192139, -0.090852335095405579, 0.003101056907325983, -0.073486097157001495, -0.15921220183372498, 0.15256156027317047, 0.034707885235548019, -0.30119386315345764, -0.10661812126636505, 0.12402626872062683, -0.25847324728965759, -0.029155394062399864, -0.33537456393241882, -0.19423839449882507, 0.23060642182826996, -0.012184570543467999, -0.14601181447505951, -0.021534878760576248, 0.1503310352563858, -0.18223795294761658, 0.080815404653549194, -0.033044852316379547, -0.0072722313925623894, 0.001164640998467803, -0.58886468410491943, 0.36804530024528503, 0.25722026824951172, -0.20244088768959045, -0.29346287250518799, -0.0063009914010763168, 0.022894129157066345, -0.23063884675502777, -0.070551156997680664, -0.22232009470462799, -0.37859627604484558, 0.033259961754083633, 0.23266033828258514, -0.097092635929584503, 0.12833589315414429, -0.050545770674943924, -0.013983779586851597, -0.24611793458461761, 0.21505062282085419, 0.21098250150680542, 0.2414533942937851, 0.15454244613647461, -0.034844603389501572, 0.23029614984989166, 0.0018260285723954439, 0.017614590004086494, -0.26068541407585144, 0.3462374210357666, -0.095121607184410095, 
  -0.36769354343414307, -0.19734780490398407, -0.2597949206829071, 0.015214323066174984, -0.13839870691299438, 0.065308041870594025, -0.19188961386680603, -0.21964375674724579, -0.10342986881732941, -0.12000496685504913, -0.0897984579205513, 0.13894334435462952, 0.079908423125743866, -0.017275061458349228, -0.081120409071445465, 0.3166118860244751, 0.038205944001674652, 0.16005870699882507, -0.25769495964050293, -0.38182157278060913, 0.30384296178817749, 0.068395167589187622, 0.034044429659843445, 0.27899816632270813, -0.35099619626998901, -0.031250379979610443, -0.079659171402454376, 0.32022836804389954, 0.1291147768497467, -0.15690231323242188, 0.2599242627620697, 0.1049363911151886, -0.40257376432418823, 0.2255711555480957, 0.71294397115707397, -0.017427358776330948, -0.15839661657810211, -0.0070662908256053925, 0.16480518877506256, -0.045369580388069153, -0.30952519178390503, -0.12948735058307648, 0.39111122488975525, -0.29012137651443481, -0.82403892278671265, 0.1456657201051712, 0.12829162180423737, 0.063197404146194458, 0.12430310994386673, 0.15132679045200348, 0.30626791715621948, -0.07986266165971756, -0.0086101610213518143, 0.19229245185852051, -0.02772114984691143, 0.10392565280199051, 0.038829304277896881, 0.1223624125123024, -0.10727132856845856, -0.21943135559558868, -0.21265134215354919, -0.36015176773071289, 0.16229566931724548, -0.13037803769111633, 
  -0.18294334411621094, 0.12165266275405884, -0.29423952102661133, 0.064479149878025055, 0.067052021622657776, -0.30214279890060425, 0.3310106098651886, 0.085351429879665375, -0.12691281735897064, 0.097144931554794312, -0.12889419496059418, -0.0086683155968785286, -0.16688653826713562, 0.19536666572093964, 0.067021921277046204, 0.21008452773094177, -0.31650474667549133, 0.1675039529800415, -0.19608093798160553, 0.071712896227836609, 0.031842734664678574, -0.18957948684692383, 0.18115431070327759, 0.16331948339939117, 0.28383553028106689, -0.015771759673953056, -0.022088818252086639, 0.0035257060080766678, 0.071468979120254517, 0.22870860993862152, 0.16733793914318085, -0.18503378331661224, 0.082864753901958466, 0.23789040744304657, 0.53737032413482666, -0.032088425010442734, -0.16414065659046173, 0.3616517186164856, -0.083775117993354797, -0.14390930533409119, 0.17816908657550812, -0.17849300801753998, 0.12940026819705963, -0.1921079158782959, 0.039193637669086456, 0.11062948405742645, -0.098356969654560089, -0.19556581974029541, 0.16038763523101807, -0.011212890967726707, 0.22899442911148071, 0.096623435616493225, 0.132937952876091, 0.32729324698448181, -0.19704428315162659, 0.23817892372608185, -0.20434887707233429, 0.29743099212646484, -0.11963175237178802, 0.13214839994907379, -0.15505301952362061, -0.47141894698143005, -0.14670427143573761, 0.12954579293727875, 
  0.20932309329509735, 0.040929306298494339, -0.066754423081874847, -0.25004610419273376, -0.080098181962966919, -0.050746168941259384, -0.046005424112081528, 0.1997259259223938, 0.073409087955951691, 0.046261552721261978, -0.16192641854286194, -0.16302812099456787, -0.058562692254781723, 0.085851043462753296, -0.32823106646537781, 0.0083585185930132866, -0.094471350312232971, -0.20844639837741852, -0.32699140906333923, -0.52355313301086426, -0.016567826271057129, 0.083988822996616364, -0.42961496114730835, 0.32917657494544983, -0.17091234028339386, -0.00093254918465390801, 0.079704917967319489, -0.36866453289985657, 0.18300910294055939, 0.29104027152061462, 0.056121695786714554, -0.34556704759597778, 0.24632689356803894, -0.27410781383514404, 0.012501551769673824, 0.095478005707263947, 0.17077955603599548, -0.094331704080104828, 0.088897734880447388, -0.12587609887123108, -0.27302971482276917, -0.056126825511455536, 0.13898563385009766, 0.11125170439481735, 0.28464385867118835, -0.081445932388305664, -0.15761235356330872, -0.15065760910511017, -0.14905321598052979, 0.058664664626121521, -0.15001553297042847, -0.19190867245197296, 0.0020150733180344105, 0.22788660228252411, 0.088079817593097687, 0.22573317587375641, 0.14787387847900391, 0.24338413774967194, -0.21390047669410706, 0.14136984944343567, 0.12102814018726349, 0.037945665419101715, 0.18264839053153992, -0.065603792667388916, 
  -0.1003074049949646, 0.044897124171257019, -0.28111821413040161, -0.074621781706809998, -0.032843440771102905, -0.085251949727535248, -0.24087657034397125, -0.057998616248369217, -0.27977088093757629, 0.19444048404693604, 0.13543990254402161, -0.031855765730142593, -0.18827240169048309, 0.12787346541881561, -0.20329199731349945, 0.1381174623966217, -0.10937085747718811, -0.14083106815814972, -0.21308654546737671, -0.23575082421302795, 0.19193725287914276, 0.030180945992469788, -0.066464133560657501, 0.067836880683898926, -0.078889183700084686, 0.20807930827140808, -0.32560941576957703, 0.099711015820503235, -0.010463722050189972, 0.061935316771268845, -0.35183534026145935, -0.32379502058029175, 0.04050033912062645, 0.090038374066352844, -0.067934036254882812, 0.038594603538513184, 0.13615486025810242, 0.23094479739665985, -0.077745780348777771, 0.090724237263202667, -0.1565220057964325, 0.10536886006593704, 0.23369590938091278, 0.068254038691520691, -0.21103639900684357, -0.086233809590339661, -0.11191172152757645, -0.059201173484325409, -0.26356047391891479, 0.08883039653301239, -0.007763600442558527, -0.33246365189552307, 0.0043669850565493107, -0.22150722146034241, -0.12397285550832748, 0.037071343511343002, 0.15295574069023132, 0.10199322551488876, 0.14876210689544678, -0.086905404925346375, -0.031578436493873596, -0.0067806723527610302, 0.15691548585891724, -0.19819948077201843, 
  0.15103603899478912, -0.46386384963989258, -0.16252240538597107, 0.11962588131427765, -0.20696775615215302, -0.0056922556832432747, -0.11606668680906296, -0.22307565808296204, 0.13273894786834717, 0.15989187359809875, -0.12138308584690094, 0.035986881703138351, -0.32982173562049866, 0.23343974351882935, -0.13001900911331177, -0.19355675578117371, 0.26875948905944824, -0.10722199827432632, 0.21177825331687927, -0.10064650326967239, -0.44105768203735352, -0.034183673560619354, -0.20229725539684296, 0.21915079653263092, -0.10612733662128448, 0.14828053116798401, -0.085268877446651459, -0.093997284770011902, 0.074112989008426666, -0.1498749703168869, -0.22974491119384766, 0.055050734430551529, 0.090681098401546478, 0.12665930390357971, -0.11366302520036697, 0.34803244471549988, 0.0091561954468488693, -0.09429478645324707, 0.13040600717067719, -0.02229689434170723, 0.22595837712287903, -0.43549349904060364, -0.036990605294704437, 0.24714414775371552, 0.12714515626430511, -0.041686277836561203, -0.18694956600666046, -0.1542695015668869, 0.11932118982076645, -0.28649541735649109, -0.15734030306339264, -0.46226051449775696, -0.027340393513441086, -0.22139179706573486, 0.019569298252463341, -0.28182944655418396, -0.091814413666725159, 0.16397948563098907, 0.013180847279727459, 0.0044407080858945847, -0.15122279524803162, -0.065875589847564697, -0.10171978175640106, -0.019138123840093613, 
  0.23888516426086426, -0.16790701448917389, 0.2248305082321167, -0.43653100728988647, -0.13174058496952057, 0.40276184678077698, -0.28902274370193481, 0.11476369947195053, -0.25811150670051575, -0.24818621575832367, 0.20293089747428894, 0.042220655828714371, 0.17121119797229767, 0.2339116632938385, 0.24756228923797607, -0.16471725702285767, -0.0040518566966056824, -0.063019424676895142, -0.020195821300148964, -0.43697583675384521, -0.020317574962973595, 0.15471827983856201, -0.051803998649120331, 0.22287611663341522, 0.30316966772079468, -0.12409750372171402, 0.0702814981341362, 0.088538773357868195, 0.042859777808189392, 0.09168611466884613, 0.25690162181854248, -0.095170140266418457, 0.27833610773086548, -0.05597677081823349, -0.38849571347236633, 0.35446178913116455, -0.26911023259162903, -0.35685613751411438, 0.0017597404075786471, 0.031831327825784683, 0.13931865990161896, 0.11434835195541382, 0.1412496417760849, -0.30639231204986572, -0.04582575336098671, 0.21074685454368591, 0.10869871824979782, 0.023465804755687714, 0.1708577424287796, -0.051856614649295807, 0.19865089654922485, -0.26177045702934265, -0.23597781360149384, -0.20361551642417908, 0.11090407520532608, -0.20684903860092163, -0.18269725143909454, -0.55852979421615601, -0.085287176072597504, 0.23276409506797791, 0.0097606079652905464, 0.37025761604309082, 0.15264959633350372, 0.2740720808506012, 
  0.17596836388111115, 0.051791153848171234, 0.14919982850551605, 0.15582382678985596, -0.084321632981300354, 0.21763968467712402, 0.21116179227828979, -0.019539771601557732, -0.27048608660697937, -0.022137625142931938, 0.14402982592582703, -0.12932573258876801, -0.23356924951076508, 0.12689998745918274, -0.10638545453548431, 0.31244167685508728, 0.25410115718841553, -0.0037811195943504572, -0.01313379593193531, -0.079288952052593231, -0.076067343354225159, 0.046898029744625092, -0.10803504288196564, 0.13076704740524292, -0.2022223025560379, 0.21464580297470093, 0.14685769379138947, -0.30658411979675293, 0.14510813355445862, 0.11584483087062836, -0.092888422310352325, -0.15926198661327362, -0.046421941369771957, -0.23861102759838104, 0.28419893980026245, 0.20770081877708435, -0.17581804096698761, 0.13150939345359802, -0.21401624381542206, -0.34648653864860535, -0.27070435881614685, 0.19006365537643433, 0.089704819023609161, -0.20263828337192535, -0.086583405733108521, -0.10881461948156357, -0.21718007326126099, 0.19608268141746521, -0.25078064203262329, 0.17090515792369843, 0.1207912340760231, -0.073692619800567627, 0.18019893765449524, -0.033598221838474274, -0.042099066078662872, -0.047708883881568909, -0.17107541859149933, 0.12761697173118591, 0.11109263449907303, -0.066674418747425079, 0.13425074517726898, -0.30878674983978271, 0.18203698098659515, -0.24377276003360748, 
  0.11582596600055695, 0.0083104716613888741, -0.070504829287528992, -0.046965379267930984, -0.01965746097266674, -0.14865872263908386, 0.014747235924005508, 0.26524245738983154, -0.10681478679180145, 0.24514523148536682, 0.2301972508430481, 0.23925380408763885, 0.087774373590946198, -0.059724580496549606, -0.13077273964881897, -0.25283500552177429, -0.28658246994018555, -0.11979324370622635, 0.070593461394309998, -0.33444845676422119, -0.46371933817863464, 0.25887459516525269, 0.24029634892940521, 0.010808863677084446, 0.02740185521543026, 0.026717089116573334, -0.023107228800654411, 0.023606128990650177, 0.048330523073673248, 0.1550816148519516, -0.03666171059012413, 0.14434704184532166, 0.2071768194437027, 0.0088988766074180603, 0.02104448527097702, -0.16226215660572052, -0.034610208123922348, -0.33168533444404602, -0.052001107484102249, -0.010593367740511894, 0.14056417346000671, -0.12093792855739594, 0.19437971711158752, -0.093312956392765045, 0.13614450395107269, 0.19938205182552338, -0.057609379291534424, 0.097456894814968109, -0.0051625128835439682, -0.14430719614028931, -0.07590445876121521, 0.13935703039169312, 0.18103648722171783, 0.28896591067314148, 0.043452616780996323, -0.11057781428098679, 0.21569040417671204, -0.038278523832559586, -0.10507567226886749, -0.19206172227859497, -0.060533605515956879, 0.19956719875335693, 0.20583632588386536, -0.056465081870555878, 
  -0.26970374584197998, 0.1588590145111084, 0.21672312915325165, 0.44178926944732666, -0.21303535997867584, 0.060510430485010147, 0.63155275583267212, -0.15161670744419098, -0.063773289322853088, 0.0093907341361045837, -0.074154205620288849, 0.1575523167848587, 0.16459587216377258, 0.1256929337978363, -0.31375902891159058, 0.26853561401367188, -0.15107424557209015, 0.033479191362857819, -0.18823370337486267, 0.15598995983600616, 0.18588671088218689, 0.069005213677883148, 0.30973115563392639, 0.058779507875442505, -0.26044604182243347, 0.21799987554550171, 0.24636057019233704, -0.055483486503362656, 0.18846465647220612, -0.099606193602085114, 0.16555681824684143, 0.010401922278106213, -0.056944414973258972, 0.15766936540603638, 0.55329781770706177, -0.22108229994773865, -0.13223154842853546, 0.062051884829998016, -0.23723934590816498, -0.20200350880622864, 0.16385896503925323, 0.29005387425422668, -0.34413924813270569, 0.058542151004076004, -0.032157354056835175, 0.20774726569652557, 0.14777153730392456, 0.0025435218121856451, -0.094411157071590424, -0.23826940357685089, 0.32352212071418762, 0.13675872981548309, -0.12905260920524597, -0.17035485804080963, -0.10085149854421616, -0.066778711974620819, 0.24563443660736084, 0.022617129608988762, 0.085149586200714111, 0.026474149897694588, 0.1912837028503418, -0.41359227895736694, -0.23985873162746429, -0.10586030781269073, 
  0.014121423475444317, 0.19960711896419525, 0.082812212407588959, 0.097659863531589508, 0.015872417017817497, 0.1163778230547905, 0.22748738527297974, -0.19612696766853333, 0.00055328867165371776, -0.1284792423248291, -0.15504707396030426, 0.11912958323955536, 0.15211983025074005, 0.078694291412830353, 0.090900406241416931, -0.32079693675041199, -0.11328746378421783, -0.00036503252340480685, 0.12478132545948029, 0.51518380641937256, 0.25028848648071289, -0.03507579118013382, 0.57204800844192505, -0.23320390284061432, -0.29127958416938782, -0.01571056991815567, 0.30355334281921387, 0.37533339858055115, 0.26791208982467651, 0.10076715797185898, 0.46496230363845825, 0.50070291757583618, 0.012953855097293854, 0.039127402007579803, 0.60680198669433594, 0.056969549506902695, 0.22741182148456573, -0.066363990306854248, -0.1882476806640625, 0.10279147326946259, 0.16673238575458527, 0.015663903206586838, 0.071340784430503845, 0.0091363461688160896, -0.23067912459373474, -0.11689253896474838, -0.20109251141548157, 0.031154029071331024, -0.053084880113601685, -0.14664718508720398, 0.05903959646821022, -0.13096921145915985, 0.070841111242771149, -0.30733227729797363, -0.02415425144135952, -0.031449019908905029, 0.049362841993570328, -0.15989761054515839, 0.041103050112724304, -0.18152257800102234, -0.18217714130878448, 0.096315518021583557, 0.13088808953762054, 0.16701886057853699, 
  -0.40378892421722412, 0.0059526781551539898, 0.18724168837070465, 0.35662740468978882, -0.10770530998706818, 0.2566283643245697, 0.10948482155799866, -0.24826838076114655, -0.3153015673160553, 0.057958692312240601, 0.075055375695228577, 0.27004349231719971, 0.15976759791374207, 0.087980329990386963, 0.064035199582576752, -0.21680368483066559, 0.083829991519451141, 0.16184577345848083, 0.024405520409345627, 0.6633726954460144, -0.36868345737457275, 0.24041610956192017, 0.41061198711395264, -0.1889721155166626, -0.017442170530557632, -0.28308951854705811, -0.077173888683319092, 0.31388455629348755, 0.030525771901011467, 0.40663427114486694, 0.0004172514018137008, 0.019193945452570915, 0.0040249642916023731, -0.21169096231460571, 0.26043701171875, -0.035597901791334152, -0.024776002392172813, -0.04528476670384407, -0.20293121039867401, -0.079901434481143951, 0.25273647904396057, -0.068515345454216003, -0.28557085990905762, 0.087113305926322937, -0.094533100724220276, 0.10131332278251648, -0.17371046543121338, 0.15056002140045166, 0.16452933847904205, -0.014057496562600136, -0.0041912361048161983, -0.0017723790369927883, 0.010659925639629364, -0.37569421529769897, 0.1357799619436264, -0.083568371832370758, -0.12994809448719025, -0.14246216416358948, 0.28251269459724426, 0.13576805591583252, -0.063103318214416504, 0.18810926377773285, 0.10385898500680923, 0.14424973726272583, 
  -0.14100809395313263, -0.09720136970281601, -0.06356966495513916, 0.21644687652587891, -0.089402139186859131, 0.22489911317825317, 0.069770537316799164, 0.063848450779914856, -0.20538775622844696, -0.253517746925354, -0.17136868834495544, 0.077269233763217926, -0.20875030755996704, -0.13284453749656677, -0.22581534087657928, 0.047006215900182724, -0.1265963613986969, -0.1541028618812561, 0.13802345097064972, 0.17874427139759064, 0.15431421995162964, 0.15015724301338196, -0.035590112209320068, -0.0015932321548461914, -0.037657033652067184, 0.19549192488193512, -0.24042984843254089, -0.025324415415525436, 0.10959396511316299, -0.17856490612030029, -0.18512117862701416, -0.18114745616912842, -0.027221888303756714, -0.039888553321361542, -0.15657752752304077, -0.10575395822525024, -0.13211789727210999, -0.1836472749710083, -0.13738323748111725, -0.010520003736019135, -0.13900220394134521, -0.044040877372026443, -0.22171950340270996, 0.19067193567752838, 0.18019284307956696, -0.080496877431869507, -0.2275136262178421, -0.19074980914592743, 0.090075545012950897, -0.049262408167123795, -0.13949191570281982, -0.19819097220897675, 0.011548927985131741, 0.036551617085933685, -0.048593237996101379, -0.010404731146991253, -0.093634895980358124, 0.048976872116327286, -0.1984742134809494, -0.049971498548984528, -0.16761322319507599, -0.22168219089508057, 0.21045041084289551, -0.20901072025299072, 
  -0.13594712316989899, -0.0059086671099066734, 0.22317752242088318, -0.089726097881793976, 0.18613211810588837, -0.26974421739578247, 0.1715506911277771, -0.10502099245786667, -0.056555990129709244, 0.050504889339208603, -0.095157139003276825, 0.086135208606719971, 0.18744529783725739, 0.25514587759971619, 0.064873218536376953, -0.062911011278629303, 0.093576140701770782, 0.15300825238227844, 0.090606674551963806, -0.10086972266435623, -0.075571753084659576, -0.0077134184539318085, 0.47278392314910889, 0.19119316339492798, 0.12965384125709534, -0.034797992557287216, 0.23051992058753967, 0.19803322851657867, -0.067802213132381439, -0.2254297286272049, -0.054433785378932953, 0.23791460692882538, -0.35222893953323364, -0.20563250780105591, 0.26695513725280762, -0.1826135516166687, 0.20960251986980438, -0.012658377178013325, 0.12294052541255951, -0.28049996495246887, 0.20026010274887085, -0.10865180194377899, -0.14444297552108765, -0.059680178761482239, 0.21145199239253998, 0.23344677686691284, 0.22857663035392761, 0.14838182926177979, 0.21207009255886078, 0.17140032351016998, -0.079709917306900024, -0.019433949142694473, 0.0023956368677318096, -0.12932239472866058, -0.11411260813474655, -0.056769765913486481, 0.10205722600221634, 0.18336221575737, -0.10815048962831497, 0.071960270404815674, -0.1716146320104599, -0.54283159971237183, 0.1950642317533493, 0.16300684213638306, 
  0.36287233233451843, 0.0550571009516716, -0.46423929929733276, 0.015203662216663361, 0.04786069318652153, 0.031337391585111618, 0.27413666248321533, -0.19535240530967712, -0.0051212203688919544, -0.39960607886314392, -0.30676686763763428, -0.079740278422832489, 0.18916438519954681, 0.14021460711956024, -0.44332015514373779, -0.010037461295723915, -0.022952765226364136, -0.13386662304401398, -0.11773522943258286, -0.20419511198997498, 0.55769646167755127, -0.19351242482662201, -0.38593572378158569, 0.017635051161050797, -0.076000533998012543, 0.20638807117938995, -0.012170274741947651, 0.032490108162164688, -0.27728697657585144, 0.1079721599817276, 0.0094282329082489014, -0.030117882415652275, 0.021140960976481438, -0.099517084658145905, 0.61162954568862915, -0.22590211033821106, -0.22885577380657196, 0.2258850485086441, -0.21235120296478271, -0.01423165388405323, 0.11084951460361481, -0.44557628035545349, 0.23520062863826752, -0.21981158852577209, -0.066953085362911224, 0.051601871848106384, 0.14548105001449585, 0.22291669249534607, -0.14376586675643921, -0.11020850390195847, 0.47446700930595398, 0.22734552621841431, 0.2402045726776123, 0.032041497528553009, 0.17982825636863708, -0.10732059925794601, -0.35203012824058533, 0.062971420586109161, -0.17869453132152557, -0.0092217298224568367, 0.016402032226324081, 0.045870993286371231, 0.18161451816558838, -0.035051498562097549, 
  -0.07431475818157196, 0.14148269593715668, -0.13079947233200073, -0.58045792579650879, 0.21877939999103546, -0.020359944552183151, -0.024589281529188156, 0.22547996044158936, 0.03387514129281044, 0.18391567468643188, -0.15405052900314331, 0.097747832536697388, 0.069516569375991821, 0.13964025676250458, 0.23841512203216553, -0.098838448524475098, -0.13851335644721985, 0.092756278812885284, -0.0069202156737446785, -0.23449611663818359, -0.46197605133056641, -0.13984090089797974, -0.18292179703712463, 0.042149029672145844, -0.25098708271980286, 0.18544426560401917, -0.00038526271237060428, -0.26531967520713806, -0.057019025087356567, 0.039232451468706131, -0.14014206826686859, -0.21675844490528107, 0.085488066077232361, 0.18835297226905823, -0.36970922350883484, 0.0240340456366539, 0.1609213799238205, -0.33113208413124084, -0.080864578485488892, 0.076887853443622589, -0.08501221239566803, -0.067132510244846344, -0.17334443330764771, -0.075091257691383362, 0.28082695603370667, 0.16245085000991821, 0.26137983798980713, 0.16832996904850006, 0.057344775646924973, -0.0054013468325138092, -0.072050042450428009, 0.031365662813186646, -0.26703843474388123, -0.33452001214027405, 0.22267381846904755, -0.00097119406564161181, -0.18773315846920013, -0.0071780718863010406, 0.081218935549259186, -0.1729457825422287, 0.16902267932891846, 0.22543428838253021, 0.0084589235484600067, -0.11937041580677032, 
  -0.078562147915363312, -0.17236824333667755, 0.15461465716362, -0.29991176724433899, -0.022847801446914673, 0.10044755786657333, -0.46016904711723328, -0.01339309848845005, 0.050081841647624969, -0.11078429222106934, 0.18779928982257843, 0.19645668566226959, 0.080462515354156494, -0.00079768738942220807, 0.12553948163986206, -0.10205575823783875, 0.046272125095129013, -0.50341826677322388, 0.30132964253425598, 0.35659980773925781, 0.0047203497961163521, 0.068755775690078735, -0.18519473075866699, 0.059717744588851929, -0.20902125537395477, 0.021410528570413589, -0.020973743870854378, 0.18949325382709503, -0.16961631178855896, 0.028598127886652946, -0.052653007209300995, -0.078204788267612457, 0.077372834086418152, 0.25410422682762146, -0.23069958388805389, 0.077827878296375275, 0.015807043761014938, -0.22586439549922943, 0.051612939685583115, -0.1165207251906395, 0.072156600654125214, 0.036471553146839142, 0.15640096366405487, -0.18058261275291443, 0.15171152353286743, -0.056612182408571243, 0.22529904544353485, -0.23672080039978027, 0.24249956011772156, -0.28844341635704041, -0.10584417730569839, 0.044383693486452103, 0.11156196147203445, 0.061381515115499496, -0.018691692501306534, -0.0843629390001297, 0.12267816066741943, 0.054753385484218597, 0.15330913662910461, -0.14215706288814545, -0.078263744711875916, 0.11155808717012405, -0.014169948175549507, 0.18470242619514465, 
  0.074594929814338684, 0.20712690055370331, -0.46803569793701172, -0.081930644810199738, -0.26903924345970154, -0.10705327987670898, 0.30146422982215881, -0.38325229287147522, -0.24162875115871429, 0.17103518545627594, 0.069903895258903503, -0.13091593980789185, -0.04263981431722641, 0.05487307533621788, 0.11478699743747711, 0.10797566920518875, 0.092247731983661652, -0.54221183061599731, 0.13388219475746155, 0.08934040367603302, -0.19643038511276245, -0.24546463787555695, 0.45913881063461304, 0.048992805182933807, -0.27139168977737427, -0.071741379797458649, 0.064864136278629303, 0.021187806501984596, 0.063676759600639343, -0.22454231977462769, -0.055224094539880753, -0.39736601710319519, -0.043678928166627884, -0.029119059443473816, -0.48189514875411987, 0.14188654720783234, 0.22202922403812408, 0.69124972820281982, -0.086665846407413483, -0.26504069566726685, -0.3484228253364563, -0.31613978743553162, -0.39164930582046509, 0.097876906394958496, 0.069292731583118439, -0.036301810294389725, 0.22170595824718475, 0.17786888778209686, -0.11594628542661667, -0.17975665628910065, 0.058785837143659592, 0.077211529016494751, 0.078661203384399414, -0.012411831878125668, -0.032339192926883698, -0.34788107872009277, -0.33270984888076782, -0.01328914612531662, -0.28943929076194763, 0.065736778080463409, 0.045380089432001114, -0.057670261710882187, 0.19797289371490479, 0.058062203228473663, 
  -0.12174438685178757, 0.0087246112525463104, 0.20191556215286255, -0.24618101119995117, 0.17224164307117462, 0.0029229763895273209, -0.17480987310409546, -0.17574860155582428, 0.15210331976413727, -0.1810360848903656, 0.15710218250751495, -0.0062753609381616116, -0.088901273906230927, -0.26532918214797974, -0.088083639740943909, -0.10293092578649521, 0.098466366529464722, -0.21723629534244537, -0.12434316426515579, 0.73718857765197754, 0.21795903146266937, 0.15607920289039612, -0.088121674954891205, -0.074881710112094879, -0.097982779145240784, 0.2039976567029953, -0.096692681312561035, 0.093394890427589417, 0.23896679282188416, -0.027243120595812798, -0.24238987267017365, 0.1361401379108429, -0.029365584254264832, -0.040961246937513351, 0.1948336660861969, -0.16579040884971619, 0.15208898484706879, 0.34835505485534668, -0.21021032333374023, 0.015410110354423523, -0.19077137112617493, 0.28602889180183411, 0.045406684279441833, 0.10680391639471054, 0.020171703770756721, -0.042448665946722031, 0.007915690541267395, -0.1711745411157608, 0.12111268192529678, -0.30321356654167175, -0.26825940608978271, -0.062910579144954681, 0.1698029488325119, 0.044512666761875153, -0.13251771032810211, 0.055832535028457642, 0.17700289189815521, -0.11039479821920395, 0.33873781561851501, 0.016750747337937355, 0.22784946858882904, 0.32091811299324036, 0.055601086467504501, 0.094652265310287476, 
  0.0052846260368824005, 0.26698997616767883, -0.24050794541835785, -0.086721532046794891, 0.041875787079334259, -0.22697900235652924, 0.10377052426338196, -0.038423486053943634, -0.13497093319892883, -0.19542138278484344, 0.023373942822217941, -0.021214155480265617, 0.086190670728683472, 0.023549655452370644, -0.025958558544516563, -0.10244259983301163, 0.049169715493917465, -0.18945814669132233, 0.1145261824131012, 0.14542119204998016, -0.18148694932460785, -0.10679735243320465, 0.10628288984298706, 0.067351460456848145, -0.089220911264419556, 0.036164470016956329, -0.08881986141204834, 0.061379220336675644, 0.16268835961818695, -0.20071510970592499, -0.04345056414604187, -0.1519932895898819, -0.14700594544410706, 0.027137648314237595, 0.08383256196975708, 0.21087203919887543, -0.24621838331222534, 0.0341651551425457, 0.05740698054432869, 0.20043365657329559, 0.030098343268036842, 0.086041353642940521, 0.18133021891117096, -0.099996395409107208, -0.10495141893625259, -0.091912224888801575, -0.24534936249256134, 0.18927997350692749, -0.10965003073215485, -0.058012548834085464, -0.26590424776077271, -0.26947951316833496, 0.1754210889339447, -0.099830009043216705, 0.0081592574715614319, 0.12219129502773285, 0.075411923229694366, -0.094269834458827972, -0.082218080759048462, -0.10844288021326065, -0.29897657036781311, 0.1160409227013588, -0.081548295915126801, -0.25136271119117737, 
};
const TfArray<2, int> tensor_dimension7 = { 2, { 32,64 } };
const ALIGN(8) float tensor_data8[16*32] = { 
  -0.022376375272870064, -0.051257431507110596, 0.038363408297300339, -0.37262588739395142, 0.12339668720960617, -0.35041278600692749, -0.17698130011558533, 0.44958662986755371, -0.082510411739349365, -0.11485112458467484, -0.19878503680229187, 0.086785659193992615, 0.10608489066362381, 0.0010425768559798598, 0.071067720651626587, 0.06116345152258873, -0.087348312139511108, 0.43633979558944702, -0.30966401100158691, 0.031357709318399429, -0.16371370851993561, -0.51140314340591431, 0.26737809181213379, -0.57147383689880371, -0.31620186567306519, 0.19173860549926758, 0.29787495732307434, -0.30551630258560181, 0.21681039035320282, 0.037840742617845535, -0.072766624391078949, -0.2949240505695343, 
  0.26527297496795654, 0.17089040577411652, 0.22107140719890594, -0.25327411293983459, -0.2308659553527832, -0.22607935965061188, 0.28590711951255798, -0.10387195646762848, 0.035692844539880753, 0.09711138904094696, -0.17711806297302246, -0.37350991368293762, -0.074598409235477448, 0.35819092392921448, -0.073615863919258118, 0.21234564483165741, -0.19257736206054688, 0.30016663670539856, 0.36017259955406189, 0.36479756236076355, 0.079232752323150635, -0.20805798470973969, 0.20370286703109741, -0.53267478942871094, 0.30020022392272949, 0.31426501274108887, 0.12908948957920074, -0.1564672589302063, -0.023102892562747002, 0.40529125928878784, -0.2477373331785202, 0.48719769716262817, 
  -0.27145108580589294, 0.1971651166677475, 0.19877322018146515, -0.40536370873451233, 0.3220798671245575, 0.16376343369483948, -0.15843309462070465, -0.38411295413970947, -0.11225999891757965, -0.27461129426956177, -0.26255211234092712, -0.14733649790287018, -0.086518280208110809, 0.20549464225769043, -0.1824030876159668, -0.30404126644134521, -0.27671992778778076, -0.062685564160346985, -0.24549025297164917, -0.0994110107421875, -0.10215224325656891, -0.44017800688743591, 0.16176524758338928, -0.0062273740768432617, -0.1943453848361969, 0.010777761228382587, -0.38741400837898254, 0.025225235149264336, -0.38490250706672668, 0.25084009766578674, -0.28055012226104736, 0.28377249836921692, 
